{"learner":{"attributes":{"best_iteration":"99","best_ntree_limit":"100"},"feature_names":["transaction_amount","transaction_channel","transaction_payment_mode_anonymous","payment_gateway_bank_anonymous","payer_browser_anonymous","payer_email_anonymous","payee_ip_anonymous","payer_mobile_anonymous","transaction_id_anonymous","payee_id_anonymous","transaction_day","transaction_month","transaction_year"],"feature_types":["float","int","int","int","int","int","int","int","int","int","int","int","int"],"gradient_booster":{"model":{"gbtree_model_param":{"num_parallel_tree":"1","num_trees":"100","size_leaf_vector":"0"},"tree_info":[0,0,0,0,0,0,0,0,0,0,0,0,0,0,0,0,0,0,0,0,0,0,0,0,0,0,0,0,0,0,0,0,0,0,0,0,0,0,0,0,0,0,0,0,0,0,0,0,0,0,0,0,0,0,0,0,0,0,0,0,0,0,0,0,0,0,0,0,0,0,0,0,0,0,0,0,0,0,0,0,0,0,0,0,0,0,0,0,0,0,0,0,0,0,0,0,0,0,0,0],"trees":[{"base_weights":[-1.999682E0],"categories":[],"categories_nodes":[],"categories_segments":[],"categories_sizes":[],"default_left":[0],"id":0,"left_children":[-1],"loss_changes":[0E0],"parents":[2147483647],"right_children":[-1],"split_conditions":[-5.999046E-1],"split_indices":[0],"split_type":[0],"sum_hessian":[3.4585E4],"tree_param":{"num_deleted":"0","num_feature":"13","num_nodes":"1","size_leaf_vector":"0"}},{"base_weights":[-1.5485308E0],"categories":[],"categories_nodes":[],"categories_segments":[],"categories_sizes":[],"default_left":[0],"id":1,"left_children":[-1],"loss_changes":[0E0],"parents":[2147483647],"right_children":[-1],"split_conditions":[-4.6455926E-1],"split_indices":[0],"split_type":[0],"sum_hessian":[3.165089E4],"tree_param":{"num_deleted":"0","num_feature":"13","num_nodes":"1","size_leaf_vector":"0"}},{"base_weights":[-1.3445206E0],"categories":[],"categories_nodes":[],"categories_segments":[],"categories_sizes":[],"default_left":[0],"id":2,"left_children":[-1],"loss_changes":[0E0],"parents":[2147483647],"right_children":[-1],"split_conditions":[-4.033562E-1],"split_indices":[0],"split_type":[0],"sum_hessian":[2.6379635E4],"tree_param":{"num_deleted":"0","num_feature":"13","num_nodes":"1","size_leaf_vector":"0"}},{"base_weights":[-1.2299415E0],"categories":[],"categories_nodes":[],"categories_segments":[],"categories_sizes":[],"default_left":[0],"id":3,"left_children":[-1],"loss_changes":[0E0],"parents":[2147483647],"right_children":[-1],"split_conditions":[-3.6898246E-1],"split_indices":[0],"split_type":[0],"sum_hessian":[2.1055703E4],"tree_param":{"num_deleted":"0","num_feature":"13","num_nodes":"1","size_leaf_vector":"0"}},{"base_weights":[-1.1587065E0],"categories":[],"categories_nodes":[],"categories_segments":[],"categories_sizes":[],"default_left":[0],"id":4,"left_children":[-1],"loss_changes":[0E0],"parents":[2147483647],"right_children":[-1],"split_conditions":[-3.4761196E-1],"split_indices":[0],"split_type":[0],"sum_hessian":[1.6399227E4],"tree_param":{"num_deleted":"0","num_feature":"13","num_nodes":"1","size_leaf_vector":"0"}},{"base_weights":[-1.1117398E0],"categories":[],"categories_nodes":[],"categories_segments":[],"categories_sizes":[],"default_left":[0],"id":5,"left_children":[-1],"loss_changes":[0E0],"parents":[2147483647],"right_children":[-1],"split_conditions":[-3.3352193E-1],"split_indices":[0],"split_type":[0],"sum_hessian":[1.2578665E4],"tree_param":{"num_deleted":"0","num_feature":"13","num_nodes":"1","size_leaf_vector":"0"}},{"base_weights":[-1.0795705E0],"categories":[],"categories_nodes":[],"categories_segments":[],"categories_sizes":[],"default_left":[0],"id":6,"left_children":[-1],"loss_changes":[0E0],"parents":[2147483647],"right_children":[-1],"split_conditions":[-3.2387117E-1],"split_indices":[0],"split_type":[0],"sum_hessian":[9.551493E3],"tree_param":{"num_deleted":"0","num_feature":"13","num_nodes":"1","size_leaf_vector":"0"}},{"base_weights":[-1.056924E0],"categories":[],"categories_nodes":[],"categories_segments":[],"categories_sizes":[],"default_left":[0],"id":7,"left_children":[-1],"loss_changes":[0E0],"parents":[2147483647],"right_children":[-1],"split_conditions":[-3.1707722E-1],"split_indices":[0],"split_type":[0],"sum_hessian":[7.2033145E3],"tree_param":{"num_deleted":"0","num_feature":"13","num_nodes":"1","size_leaf_vector":"0"}},{"base_weights":[-1.040616E0],"categories":[],"categories_nodes":[],"categories_segments":[],"categories_sizes":[],"default_left":[0],"id":8,"left_children":[-1],"loss_changes":[0E0],"parents":[2147483647],"right_children":[-1],"split_conditions":[-3.121848E-1],"split_indices":[0],"split_type":[0],"sum_hessian":[5.406696E3],"tree_param":{"num_deleted":"0","num_feature":"13","num_nodes":"1","size_leaf_vector":"0"}},{"base_weights":[-1.0286044E0],"categories":[],"categories_nodes":[],"categories_segments":[],"categories_sizes":[],"default_left":[0],"id":9,"left_children":[-1],"loss_changes":[0E0],"parents":[2147483647],"right_children":[-1],"split_conditions":[-3.0858132E-1],"split_indices":[0],"split_type":[0],"sum_hessian":[4.0447678E3],"tree_param":{"num_deleted":"0","num_feature":"13","num_nodes":"1","size_leaf_vector":"0"}},{"base_weights":[-1.0195118E0],"categories":[],"categories_nodes":[],"categories_segments":[],"categories_sizes":[],"default_left":[0],"id":10,"left_children":[-1],"loss_changes":[0E0],"parents":[2147483647],"right_children":[-1],"split_conditions":[-3.0585355E-1],"split_indices":[0],"split_type":[0],"sum_hessian":[3.0189705E3],"tree_param":{"num_deleted":"0","num_feature":"13","num_nodes":"1","size_leaf_vector":"0"}},{"base_weights":[-1.0123644E0],"categories":[],"categories_nodes":[],"categories_segments":[],"categories_sizes":[],"default_left":[0],"id":11,"left_children":[-1],"loss_changes":[0E0],"parents":[2147483647],"right_children":[-1],"split_conditions":[-3.0370933E-1],"split_indices":[0],"split_type":[0],"sum_hessian":[2.2498435E3],"tree_param":{"num_deleted":"0","num_feature":"13","num_nodes":"1","size_leaf_vector":"0"}},{"base_weights":[-1.0064366E0],"categories":[],"categories_nodes":[],"categories_segments":[],"categories_sizes":[],"default_left":[0],"id":12,"left_children":[-1],"loss_changes":[0E0],"parents":[2147483647],"right_children":[-1],"split_conditions":[-3.01931E-1],"split_indices":[0],"split_type":[0],"sum_hessian":[1.6750326E3],"tree_param":{"num_deleted":"0","num_feature":"13","num_nodes":"1","size_leaf_vector":"0"}},{"base_weights":[-1.0011525E0],"categories":[],"categories_nodes":[],"categories_segments":[],"categories_sizes":[],"default_left":[0],"id":13,"left_children":[-1],"loss_changes":[0E0],"parents":[2147483647],"right_children":[-1],"split_conditions":[-3.0034578E-1],"split_indices":[0],"split_type":[0],"sum_hessian":[1.2464521E3],"tree_param":{"num_deleted":"0","num_feature":"13","num_nodes":"1","size_leaf_vector":"0"}},{"base_weights":[-9.960175E-1],"categories":[],"categories_nodes":[],"categories_segments":[],"categories_sizes":[],"default_left":[0],"id":14,"left_children":[-1],"loss_changes":[0E0],"parents":[2147483647],"right_children":[-1],"split_conditions":[-2.9880527E-1],"split_indices":[0],"split_type":[0],"sum_hessian":[9.274457E2],"tree_param":{"num_deleted":"0","num_feature":"13","num_nodes":"1","size_leaf_vector":"0"}},{"base_weights":[-9.905674E-1,-3.0010357E-1,-8.518504E-1,-9.490323E-1,-6.037549E-1,-2.928246E-1,-1.4088976E-2,2.9538262E-1,-7.6147753E-1,-2.7432305E-1,-3.7473243E-1,-2.389865E-1,1.7304091E-1],"categories":[],"categories_nodes":[],"categories_segments":[],"categories_sizes":[],"default_left":[0,0,0,0,0,0,0,0,0,0,0,0,0],"id":15,"left_children":[1,-1,3,5,7,-1,-1,-1,9,-1,11,-1,-1],"loss_changes":[8.5510254E-2,0E0,6.8692017E-1,8.276787E-1,5.1229763E0,0E0,0E0,0E0,6.299114E-1,0E0,3.0103004E0,0E0,0E0],"parents":[2147483647,0,0,2,2,3,3,4,4,8,8,10,10],"right_children":[2,-1,4,6,8,-1,-1,-1,10,-1,12,-1,-1],"split_conditions":[2.474E3,-3.0010357E-1,5.63E2,1.67583E5,4.3E1,-2.928246E-1,-1.4088976E-2,2.9538262E-1,5E0,-2.7432305E-1,4.8E1,-2.389865E-1,1.7304091E-1],"split_indices":[0,0,7,8,9,0,0,0,2,0,3,0,0],"split_type":[0,0,0,0,0,0,0,0,0,0,0,0,0],"sum_hessian":[6.9029486E2,6.390392E2,5.1255665E1,3.4799164E1,1.6456501E1,3.370639E1,1.0927756E0,1.0129381E0,1.5443563E1,1.0089462E1,5.354101E0,3.8222196E0,1.5318818E0],"tree_param":{"num_deleted":"0","num_feature":"13","num_nodes":"13","size_leaf_vector":"0"}},{"base_weights":[-9.8436034E-1,-2.9922536E-1,-8.09609E-1,-8.857457E-1,-4.018377E-1,-9.124128E-1,-8.130163E-3,2.0225252E-1,-2.5364086E-1,-2.9046592E-1,-4.7472057E-1,-2.3574093E-1,1.327727E-1],"categories":[],"categories_nodes":[],"categories_segments":[],"categories_sizes":[],"default_left":[0,0,0,0,0,0,0,0,0,0,0,0,0],"id":16,"left_children":[1,-1,3,5,7,9,-1,-1,-1,-1,11,-1,-1],"loss_changes":[3.6935425E-1,0E0,9.222412E-1,7.506218E-1,4.535802E0,3.4182167E-1,0E0,0E0,0E0,0E0,1.9664128E0,0E0,0E0],"parents":[2147483647,0,0,2,2,3,3,4,4,5,5,10,10],"right_children":[2,-1,4,6,8,10,-1,-1,-1,-1,12,-1,-1],"split_conditions":[2.474E3,-2.9922536E-1,1.56E3,1.68249E5,1.694E3,8.11E2,-8.130163E-3,2.0225252E-1,-2.5364086E-1,-2.9046592E-1,1.25E3,-2.3574093E-1,1.327727E-1],"split_indices":[0,0,4,8,4,7,0,0,0,0,4,0,0],"split_type":[0,0,0,0,0,0,0,0,0,0,0,0,0],"sum_hessian":[5.1476575E2,4.7459616E2,4.0169582E1,3.2861675E1,7.3079042E0,3.1811094E1,1.0505817E0,1.9816976E0,5.3262067E0,2.7138733E1,4.6723623E0,3.5961492E0,1.0762129E0],"tree_param":{"num_deleted":"0","num_feature":"13","num_nodes":"13","size_leaf_vector":"0"}},{"base_weights":[-9.768691E-1,-2.9828238E-1,-7.608952E-1,-4.9413216E-1,-2.8451958E-1,2.4294433E-1,-6.5843695E-1,-2.7624625E-1,4.962033E-1,-4.3461286E-2,2.9868078E-1],"categories":[],"categories_nodes":[],"categories_segments":[],"categories_sizes":[],"default_left":[0,0,0,0,0,0,0,0,0,0,0],"id":17,"left_children":[1,-1,3,5,-1,-1,7,-1,9,-1,-1],"loss_changes":[6.9277954E-1,0E0,1.1827488E0,3.9000874E0,0E0,0E0,4.852259E0,0E0,1.2123302E0,0E0,0E0],"parents":[2147483647,0,0,2,2,3,3,6,6,8,8],"right_children":[2,-1,4,6,-1,-1,8,-1,10,-1,-1],"split_conditions":[2.474E3,-2.9828238E-1,7E0,2.8E1,-2.8451958E-1,2.4294433E-1,5E0,-2.7624625E-1,6.38E2,-4.3461286E-2,2.9868078E-1],"split_indices":[0,0,1,9,0,0,1,0,7,0,0],"split_type":[0,0,0,0,0,0,0,0,0,0,0],"sum_hessian":[3.8455496E2,3.5253986E2,3.201511E1,1.4715097E1,1.730001E1,1.2070489E0,1.3508049E1,1.1171832E1,2.3362164E0,1.333861E0,1.0023556E0],"tree_param":{"num_deleted":"0","num_feature":"13","num_nodes":"11","size_leaf_vector":"0"}},{"base_weights":[-9.674759E-1,-2.971917E-1,-7.0294267E-1,-8.849358E-1,-3.4534678E-1,-2.8186768E-1,-1.2188156E-2,2.867789E-1,-5.8610344E-1,-2.5388584E-1,-4.9908947E-2,2.3481025E-1,-1.992223E-1],"categories":[],"categories_nodes":[],"categories_segments":[],"categories_sizes":[],"default_left":[0,0,0,0,0,0,0,0,0,0,0,0,0],"id":18,"left_children":[1,-1,3,5,7,-1,-1,-1,9,-1,11,-1,-1],"loss_changes":[1.0724487E0,0E0,1.4310684E0,7.4791336E-1,3.893831E0,0E0,0E0,0E0,1.296916E0,0E0,2.6668518E0,0E0,0E0],"parents":[2147483647,0,0,2,2,3,3,4,4,8,8,10,10],"right_children":[2,-1,4,6,8,-1,-1,-1,10,-1,12,-1,-1],"split_conditions":[2.474E3,-2.971917E-1,5.63E2,1.64902E5,2.8E1,-2.8186768E-1,-1.2188156E-2,2.867789E-1,8.813E3,-2.5388584E-1,1.50885E4,2.3481025E-1,-1.992223E-1],"split_indices":[0,0,7,8,9,0,0,0,0,0,0,0,0],"split_type":[0,0,0,0,0,0,0,0,0,0,0,0,0],"sum_hessian":[2.8767502E2,2.6198978E2,2.5685268E1,1.6044815E1,9.640452E0,1.49639015E1,1.0809149E0,1.0413723E0,8.59908E0,5.4003158E0,3.198764E0,1.2414056E0,1.9573585E0],"tree_param":{"num_deleted":"0","num_feature":"13","num_nodes":"13","size_leaf_vector":"0"}},{"base_weights":[-9.555419E-1,-2.958598E-1,-6.408936E-1,-3.1978655E-1,-2.742701E-1,-5.8315617E-1,5.7069856E-1,1.5083076E-1,-2.6246104E-1,-2.4446784E-2,2.98018E-1],"categories":[],"categories_nodes":[],"categories_segments":[],"categories_sizes":[],"default_left":[0,0,0,0,0,0,0,0,0,0,0],"id":19,"left_children":[1,-1,3,5,-1,7,9,-1,-1,-1,-1],"loss_changes":[1.4607849E0,0E0,1.6489811E0,3.078733E0,0E0,3.4589303E0,9.570111E-1,0E0,0E0,0E0,0E0],"parents":[2147483647,0,0,2,2,3,3,5,5,6,6],"right_children":[2,-1,4,6,-1,8,10,-1,-1,-1,-1],"split_conditions":[2.474E3,-2.958598E-1,7E0,5E0,-2.742701E-1,2.8E1,7.12E2,1.5083076E-1,-2.6246104E-1,-2.4446784E-2,2.98018E-1],"split_indices":[0,0,1,1,0,9,7,0,0,0,0],"split_type":[0,0,0,0,0,0,0,0,0,0,0],"sum_hessian":[2.159561E2,1.9483795E2,2.1118149E1,1.0708374E1,1.0409774E1,8.530516E0,2.1778576E0,1.6531286E0,6.8773875E0,1.173872E0,1.0039858E0],"tree_param":{"num_deleted":"0","num_feature":"13","num_nodes":"11","size_leaf_vector":"0"}},{"base_weights":[-9.402218E-1,-9.8698306E-1,-6.1576355E-1,-2.9818323E-1,-3.7257448E-1,-7.8764176E-1,6.2386435E-2,-1.6193412E-1,-2.2108085E-3,-8.3191425E-1,-3.8463722E-3,4.0309718E-1,-2.2705019E-1,-2.795329E-1,-3.0679324E-1,-2.0978881E-1,1.4701241E-1],"categories":[],"categories_nodes":[],"categories_segments":[],"categories_sizes":[],"default_left":[0,0,0,0,0,0,0,0,0,0,0,0,0,0,0,0,0],"id":20,"left_children":[1,3,5,-1,7,9,11,-1,-1,13,-1,-1,-1,-1,15,-1,-1],"loss_changes":[1.8755951E0,2.3442078E-1,2.76225E0,0E0,1.9043171E-1,6.288643E-1,6.9297957E0,0E0,0E0,6.381302E-1,0E0,0E0,0E0,0E0,1.6895175E0,0E0,0E0],"parents":[2147483647,0,0,1,1,2,2,4,4,5,5,6,6,9,9,14,14],"right_children":[2,4,6,-1,8,10,12,-1,-1,14,-1,-1,-1,-1,16,-1,-1],"split_conditions":[1.5E3,1.70247E5,1.56E3,-2.9818323E-1,1.5E2,1.6623E5,1.694E3,-1.6193412E-1,-2.2108085E-3,8.11E2,-3.8463722E-3,4.0309718E-1,-2.2705019E-1,-2.795329E-1,1.242E3,-2.0978881E-1,1.4701241E-1],"split_indices":[0,8,4,0,0,8,4,0,0,7,0,0,0,0,4,0,0],"split_type":[0,0,0,0,0,0,0,0,0,0,0,0,0,0,0,0,0],"sum_hessian":[1.6267767E2,1.4040099E2,2.2276674E1,1.3821732E2,2.1836782E0,1.7643454E1,4.6332197E0,1.1699893E0,1.0136888E0,1.6620111E1,1.0233426E0,1.5573459E0,3.075874E0,1.3313824E1,3.306288E0,2.2971642E0,1.0091238E0],"tree_param":{"num_deleted":"0","num_feature":"13","num_nodes":"17","size_leaf_vector":"0"}},{"base_weights":[-9.208235E-1,-9.819075E-1,-5.50297E-1,-2.9735568E-1,-1.0066689E-1,-1.9342604E-1,-2.6974213E-1,-2.415409E-1,2.7641356E-1,-2.1934469E-1,1.0701905E0,1.7321562E0,-1.541646E-1,1.4650011E-1,6.208196E-1],"categories":[],"categories_nodes":[],"categories_segments":[],"categories_sizes":[],"default_left":[0,0,0,0,0,0,0,0,0,0,0,0,0,0,0],"id":21,"left_children":[1,3,5,-1,-1,7,-1,-1,9,-1,11,13,-1,-1,-1],"loss_changes":[2.2786026E0,3.0096436E-1,2.3037052E0,0E0,0E0,3.4161496E0,0E0,0E0,6.404221E0,0E0,5.438503E0,3.6864567E-1,0E0,0E0,0E0],"parents":[2147483647,0,0,1,1,2,2,5,5,8,8,10,10,11,11],"right_children":[2,4,6,-1,-1,8,-1,-1,10,-1,12,14,-1,-1,-1],"split_conditions":[1.5E3,1.70247E5,7E0,-2.9735568E-1,-1.0066689E-1,5.79E2,-2.6974213E-1,-2.415409E-1,4.8E1,-2.1934469E-1,1.694E3,1.8597E4,-1.541646E-1,1.4650011E-1,6.208196E-1],"split_indices":[0,8,1,0,0,4,0,0,3,0,4,5,0,0,0],"split_type":[0,0,0,0,0,0,0,0,0,0,0,0,0,0,0],"sum_hessian":[1.235488E2,1.0464695E2,1.8901846E1,1.0264008E2,2.006866E0,1.0111815E1,8.7900305E0,4.0826917E0,6.0291233E0,2.6915567E0,3.3375669E0,2.2879684E0,1.0495985E0,1.01019E0,1.2777784E0],"tree_param":{"num_deleted":"0","num_feature":"13","num_nodes":"15","size_leaf_vector":"0"}},{"base_weights":[-8.965445E-1,-9.753367E-1,-4.8941305E-1,-2.963029E-1,-8.704285E-2,-8.0136365E-1,-6.5398954E-2,-2.6699653E-1,-2.6376562E-3,4.3409875E-1,-4.6928546E-1,-2.4228114E-1,1.8611084E-1,-1.6618317E-1,2.619509E-1],"categories":[],"categories_nodes":[],"categories_segments":[],"categories_sizes":[],"default_left":[0,0,0,0,0,0,0,0,0,0,0,0,0,0,0],"id":22,"left_children":[1,3,5,-1,-1,7,9,-1,-1,-1,11,-1,13,-1,-1],"loss_changes":[2.5892258E0,3.8211823E-1,2.2633767E0,0E0,0E0,6.944485E-1,5.8771663E0,0E0,0E0,0E0,1.8069476E0,0E0,2.1902845E0,0E0,0E0],"parents":[2147483647,0,0,1,1,2,2,5,5,6,6,10,10,12,12],"right_children":[2,4,6,-1,-1,8,10,-1,-1,-1,12,-1,14,-1,-1],"split_conditions":[1.5E3,1.70247E5,5.63E2,-2.963029E-1,-8.704285E-2,1.62231E5,6.14E2,-2.6699653E-1,-2.6376562E-3,4.3409875E-1,8.813E3,-2.4228114E-1,9.1855E4,-1.6618317E-1,2.619509E-1],"split_indices":[0,8,7,0,0,8,7,0,0,0,0,0,8,0,0],"split_type":[0,0,0,0,0,0,0,0,0,0,0,0,0,0,0],"sum_hessian":[9.459488E1,7.808706E1,1.650782E1,7.627202E1,1.8150411E0,8.997984E0,7.5098352E0,7.9824767E0,1.0155073E0,1.038476E0,6.4713593E0,4.1149616E0,2.3563976E0,1.227722E0,1.1286756E0],"tree_param":{"num_deleted":"0","num_feature":"13","num_nodes":"15","size_leaf_vector":"0"}},{"base_weights":[-8.659256E-1,-9.6679604E-1,-4.220028E-1,-2.9494068E-1,-7.4937694E-2,-6.545338E-1,2.0034108E-1,-3.574753E-2,-7.8918767E-1,4.152467E-1,-4.8763856E-1,-1.5446192E-1,1.3817027E-1,-2.5935444E-1,-3.5319632E-1,-1.9558376E-1,-4.206722E-3,-1.5574437E-1,-1.5611046E-3],"categories":[],"categories_nodes":[],"categories_segments":[],"categories_sizes":[],"default_left":[0,0,0,0,0,0,0,0,0,0,0,0,0,0,0,0,0,0,0],"id":23,"left_children":[1,3,5,-1,-1,7,9,11,13,-1,15,-1,-1,-1,17,-1,-1,-1,-1],"loss_changes":[2.8985558E0,4.5026016E-1,2.3664882E0,0E0,0E0,9.282794E-1,4.7204905E0,9.740769E-1,2.7279854E-3,0E0,2.928726E-1,0E0,0E0,0E0,1.7474517E-1,0E0,0E0,0E0,0E0],"parents":[2147483647,0,0,1,1,2,2,5,5,6,6,7,7,8,8,10,10,14,14],"right_children":[2,4,6,-1,-1,8,10,12,14,-1,16,-1,-1,-1,18,-1,-1,-1,-1],"split_conditions":[1.5E3,1.70247E5,1.56E3,-2.9494068E-1,-7.4937694E-2,3E0,2.8E1,1.46E2,8.11E2,4.152467E-1,3.63E2,-1.5446192E-1,1.3817027E-1,-2.5935444E-1,1.0613E5,-1.9558376E-1,-4.206722E-3,-1.5574437E-1,-1.5611046E-3],"split_indices":[0,8,4,0,0,10,9,9,7,0,9,0,0,0,8,0,0,0,0],"split_type":[0,0,0,0,0,0,0,0,0,0,0,0,0,0,0,0,0,0,0],"sum_hessian":[7.284189E1,5.8395184E1,1.4446702E1,5.6731186E1,1.6639985E0,1.0479459E1,3.9672427E0,2.09904E0,8.380419E0,1.0862339E0,2.8810089E0,1.0489899E0,1.0500501E0,6.307746E0,2.0726726E0,1.8594124E0,1.0215966E0,1.0703878E0,1.0022848E0],"tree_param":{"num_deleted":"0","num_feature":"13","num_nodes":"19","size_leaf_vector":"0"}},{"base_weights":[-8.290551E-1,-9.557066E-1,-3.6618558E-1,-2.9316527E-1,-6.43029E-2,-3.0264208E-2,-2.4908811E-1,-3.2566062E-1,2.2269964E-1,-2.4605426E-1,2.0810519E-1],"categories":[],"categories_nodes":[],"categories_segments":[],"categories_sizes":[],"default_left":[0,0,0,0,0,0,0,0,0,0,0],"id":24,"left_children":[1,3,5,-1,-1,7,-1,9,-1,-1,-1],"loss_changes":[3.0409584E0,5.049019E-1,2.1650047E0,0E0,0E0,2.3384829E0,0E0,4.269555E0,0E0,0E0,0E0],"parents":[2147483647,0,0,1,1,2,2,5,5,7,7],"right_children":[2,4,6,-1,-1,8,-1,10,-1,-1,-1],"split_conditions":[1.5E3,1.70247E5,7E0,-2.9316527E-1,-6.43029E-2,6E0,-2.4908811E-1,5E0,2.2269964E-1,-2.4605426E-1,2.0810519E-1],"split_indices":[0,8,1,0,0,10,0,1,0,0,0],"split_type":[0,0,0,0,0,0,0,0,0,0,0],"sum_hessian":[5.6842735E1,4.379476E1,1.3047974E1,4.225071E1,1.5440536E0,8.187251E0,4.8607216E0,6.341219E0,1.8460323E0,4.4013515E0,1.9398676E0],"tree_param":{"num_deleted":"0","num_feature":"13","num_nodes":"11","size_leaf_vector":"0"}},{"base_weights":[-7.8468716E-1,-2.9054326E-1,-3.588527E-1,-2.5606957E-1,2.767742E-2,-2.3073691E-1,5.6733686E-1,-1.6691865E-1,9.528251E-1,7.267935E-1,-2.1125933E-2,-1.9015786E-1,2.0594661E-1],"categories":[],"categories_nodes":[],"categories_segments":[],"categories_sizes":[],"default_left":[0,0,0,0,0,0,0,0,0,0,0,0,0],"id":25,"left_children":[1,-1,3,-1,5,-1,7,-1,9,-1,11,-1,-1],"loss_changes":[3.242508E0,0E0,2.971844E0,0E0,4.5746236E0,0E0,3.2649627E0,0E0,7.3081675E0,0E0,2.1869555E0,0E0,0E0],"parents":[2147483647,0,0,2,2,4,4,6,6,8,8,10,10],"right_children":[2,-1,4,-1,6,-1,8,-1,10,-1,12,-1,-1],"split_conditions":[7.7866E2,-2.9054326E-1,5.79E2,-2.5606957E-1,4.8E1,-2.3073691E-1,3.54E2,-1.6691865E-1,5.67E2,7.267935E-1,8.813E3,-1.9015786E-1,2.0594661E-1],"split_indices":[0,0,4,0,3,0,7,0,7,0,0,0,0],"split_type":[0,0,0,0,0,0,0,0,0,0,0,0,0],"sum_hessian":[4.487085E1,3.0453009E1,1.4417839E1,5.79397E0,8.623868E0,3.3106031E0,5.313265E0,1.243883E0,4.069382E0,1.0290182E0,3.0403638E0,1.6852834E0,1.3550804E0],"tree_param":{"num_deleted":"0","num_feature":"13","num_nodes":"13","size_leaf_vector":"0"}},{"base_weights":[-7.362992E-1,-2.874433E-1,-3.1176397E-1,-2.4549188E-1,7.7995756E-3,-2.1760505E-1,3.8457304E-1,7.938294E-1,-3.7319112E-1,3.8966897E-1,3.5714498E-3,-1.6156209E-1,-3.2628742E-3],"categories":[],"categories_nodes":[],"categories_segments":[],"categories_sizes":[],"default_left":[0,0,0,0,0,0,0,0,0,0,0,0,0],"id":26,"left_children":[1,-1,3,-1,5,-1,7,9,11,-1,-1,-1,-1],"loss_changes":[3.1800861E0,0E0,2.2984378E0,0E0,2.950883E0,0E0,2.4803612E0,1.9168146E0,1.8285558E-1,0E0,0E0,0E0,0E0],"parents":[2147483647,0,0,2,2,4,4,6,6,7,7,8,8],"right_children":[2,-1,4,-1,6,-1,8,10,12,-1,-1,-1,-1],"split_conditions":[7.7866E2,-2.874433E-1,5.79E2,-2.4549188E-1,4.8E1,-2.1760505E-1,1.593E3,5.67E2,1.05451E5,3.8966897E-1,3.5714498E-3,-1.6156209E-1,-3.2628742E-3],"split_indices":[0,0,4,0,3,0,4,7,8,0,0,0,0],"split_type":[0,0,0,0,0,0,0,0,0,0,0,0,0],"sum_hessian":[3.593735E1,2.2777708E1,1.3159641E1,4.4868336E0,8.672808E0,2.630008E0,6.0427995E0,3.892778E0,2.1500216E0,1.9634053E0,1.9293725E0,1.1423167E0,1.0077049E0],"tree_param":{"num_deleted":"0","num_feature":"13","num_nodes":"13","size_leaf_vector":"0"}},{"base_weights":[-6.838786E-1,-2.8381366E-1,-2.5942054E-1,-2.3930202E-1,6.33802E-2,-2.0944536E-1,4.2858756E-1,7.183136E-1,-1.6052642E-1,1.0855793E0,-5.8052607E-2,4.77716E-1,9.485676E-2],"categories":[],"categories_nodes":[],"categories_segments":[],"categories_sizes":[],"default_left":[0,0,0,0,0,0,0,0,0,0,0,0,0],"id":27,"left_children":[1,-1,3,-1,5,-1,7,9,-1,11,-1,-1,-1],"loss_changes":[3.1313057E0,0E0,2.3030386E0,0E0,2.810709E0,0E0,2.261429E0,2.0840156E0,0E0,1.1109815E0,0E0,0E0,0E0],"parents":[2147483647,0,0,2,2,4,4,6,6,7,7,9,9],"right_children":[2,-1,4,-1,6,-1,8,10,-1,12,-1,-1,-1],"split_conditions":[3.54E2,-2.8381366E-1,5.79E2,-2.3930202E-1,4.8E1,-2.0944536E-1,8.77E2,1.593E3,-1.6052642E-1,4.25E3,-5.8052607E-2,4.77716E-1,9.485676E-2],"split_indices":[7,0,4,0,3,0,7,4,0,0,0,0,0],"split_type":[0,0,0,0,0,0,0,0,0,0,0,0,0],"sum_hessian":[2.9344763E1,1.738072E1,1.1964044E1,3.9337032E0,8.03034E0,2.3073633E0,5.722977E0,4.5958576E0,1.1271193E0,3.1404002E0,1.4554574E0,1.2483934E0,1.8920068E0],"tree_param":{"num_deleted":"0","num_feature":"13","num_nodes":"13","size_leaf_vector":"0"}},{"base_weights":[-6.271949E-1,-2.7886167E-1,-2.2115815E-1,4.3062054E-2,-2.2632758E-1,-2.87843E-1,5.857577E-1,-2.278636E-1,4.0935826E-1,3.8636857E-1,-6.9981925E-2,2.3412515E-1,-3.7211798E-2],"categories":[],"categories_nodes":[],"categories_segments":[],"categories_sizes":[],"default_left":[0,0,0,0,0,0,0,0,0,0,0,0,0],"id":28,"left_children":[1,-1,3,5,-1,7,9,-1,11,-1,-1,-1,-1],"loss_changes":[2.8960152E0,0E0,1.7367446E0,1.7909534E0,0E0,2.3771057E0,2.4577842E0,0E0,7.2720426E-1,0E0,0E0,0E0,0E0],"parents":[2147483647,0,0,2,2,3,3,5,5,6,6,8,8],"right_children":[2,-1,4,6,-1,8,10,-1,12,-1,-1,-1,-1],"split_conditions":[7.7866E2,-2.7886167E-1,7E0,6E0,-2.2632758E-1,6E0,4E0,-2.278636E-1,5.0721E4,3.8636857E-1,-6.9981925E-2,2.3412515E-1,-3.7211798E-2],"split_indices":[0,0,1,1,0,10,10,0,8,0,0,0,0],"split_type":[0,0,0,0,0,0,0,0,0,0,0,0,0],"sum_hessian":[2.4264904E1,1.3169387E1,1.1095517E1,8.034083E0,3.0614343E0,5.282636E0,2.751447E0,3.0975323E0,2.185104E0,1.1732136E0,1.5782335E0,1.0155375E0,1.1695664E0],"tree_param":{"num_deleted":"0","num_feature":"13","num_nodes":"13","size_leaf_vector":"0"}},{"base_weights":[-5.649135E-1,-2.733577E-1,-1.6373463E-1,-2.1498592E-1,8.289276E-2,-1.8444982E-1,3.305045E-1,-1.5361771E-1,5.636404E-1,9.0082675E-1,-6.970886E-2,3.4691754E-1,6.6178076E-2],"categories":[],"categories_nodes":[],"categories_segments":[],"categories_sizes":[],"default_left":[0,0,0,0,0,0,0,0,0,0,0,0,0],"id":29,"left_children":[1,-1,3,-1,5,-1,7,-1,9,11,-1,-1,-1],"loss_changes":[2.8112898E0,0E0,1.5718431E0,0E0,1.6832159E0,0E0,1.6583652E0,0E0,1.8030552E0,5.056634E-1,0E0,0E0,0E0],"parents":[2147483647,0,0,2,2,4,4,6,6,8,8,9,9],"right_children":[2,-1,4,-1,6,-1,8,-1,10,12,-1,-1,-1],"split_conditions":[3.54E2,-2.733577E-1,5.79E2,-2.1498592E-1,4.8E1,-1.8444982E-1,1.2438E4,-1.5361771E-1,2.7233E4,5.67E2,-6.970886E-2,3.4691754E-1,6.6178076E-2],"split_indices":[7,0,4,0,3,0,5,0,5,7,0,0,0],"split_type":[0,0,0,0,0,0,0,0,0,0,0,0,0],"sum_hessian":[2.0310755E1,1.0218951E1,1.0091804E1,2.5251927E0,7.5666113E0,1.593464E0,5.9731474E0,1.0352633E0,4.937884E0,3.3760886E0,1.5617955E0,1.9452579E0,1.4308306E0],"tree_param":{"num_deleted":"0","num_feature":"13","num_nodes":"13","size_leaf_vector":"0"}},{"base_weights":[-5.1282746E-1,-2.6588923E-1,-1.5564208E-1,-2.0128526E-1,4.501736E-2,-1.710847E-1,2.3617014E-1,1.9883543E-1,-4.887095E-2,-4.4117084E-1,1.3957866E-1,-1.820078E-1,-5.162714E-3],"categories":[],"categories_nodes":[],"categories_segments":[],"categories_sizes":[],"default_left":[0,0,0,0,0,0,0,0,0,0,0,0,0],"id":30,"left_children":[1,-1,3,-1,5,-1,7,-1,9,11,-1,-1,-1],"loss_changes":[2.31499E0,0E0,1.1274999E0,0E0,1.1432381E0,0E0,9.1396093E-1,0E0,1.2696464E0,2.3563182E-1,0E0,0E0,0E0],"parents":[2147483647,0,0,2,2,4,4,6,6,8,8,9,9],"right_children":[2,-1,4,-1,6,-1,8,-1,10,12,-1,-1,-1],"split_conditions":[3.54E2,-2.6588923E-1,5.79E2,-2.0128526E-1,4.8E1,-1.710847E-1,1.265E3,1.9883543E-1,6E0,7.07E2,1.3957866E-1,-1.820078E-1,-5.162714E-3],"split_indices":[7,0,4,0,3,0,4,0,10,7,0,0,0],"split_type":[0,0,0,0,0,0,0,0,0,0,0,0,0],"sum_hessian":[1.73881E1,7.77612E0,9.61198E0,2.037022E0,7.5749583E0,1.325366E0,6.2495923E0,1.972368E0,4.277224E0,2.5065558E0,1.7706684E0,1.4927522E0,1.0138036E0],"tree_param":{"num_deleted":"0","num_feature":"13","num_nodes":"13","size_leaf_vector":"0"}},{"base_weights":[-4.5914605E-1,-2.580219E-1,-1.3067639E-1,4.925584E-2,-1.9040745E-1,2.3470895E-1,-1.6833344E-1,-1.5901165E-1,6.922309E-1,9.112184E-2,-1.8708013E-1,-2.7376061E-2,3.3602917E-1],"categories":[],"categories_nodes":[],"categories_segments":[],"categories_sizes":[],"default_left":[0,0,0,0,0,0,0,0,0,0,0,0,0],"id":31,"left_children":[1,-1,3,5,-1,7,-1,9,11,-1,-1,-1,-1],"loss_changes":[2.0291252E0,0E0,9.488139E-1,1.0807049E0,0E0,1.39538E0,0E0,1.1887242E0,1.2711512E0,0E0,0E0,0E0,0E0],"parents":[2147483647,0,0,2,2,3,3,5,5,7,7,8,8],"right_children":[2,-1,4,6,-1,8,-1,10,12,-1,-1,-1,-1],"split_conditions":[7.7866E2,-2.580219E-1,7E0,1.223154E4,-1.9040745E-1,6E0,-1.6833344E-1,2.8E1,1.07485E5,9.112184E-2,-1.8708013E-1,-2.7376061E-2,3.3602917E-1],"split_indices":[0,0,1,0,0,1,0,9,8,0,0,0,0],"split_type":[0,0,0,0,0,0,0,0,0,0,0,0,0],"sum_hessian":[1.5261515E1,6.143903E0,9.117612E0,7.3838625E0,1.733749E0,6.135212E0,1.248651E0,3.6482015E0,2.4870102E0,2.0011678E0,1.6470336E0,1.1563295E0,1.3306807E0],"tree_param":{"num_deleted":"0","num_feature":"13","num_nodes":"13","size_leaf_vector":"0"}},{"base_weights":[-4.083576E-1,-2.4819595E-1,-1.20590106E-1,5.0994623E-2,-1.8569589E-1,-1.631292E-1,1.9481978E-1,3.1590542E-1,-5.1069677E-1,-4.1034058E-2,1.9510199E-1,-1.6363E-2,-2.0621353E-1],"categories":[],"categories_nodes":[],"categories_segments":[],"categories_sizes":[],"default_left":[0,0,0,0,0,0,0,0,0,0,0,0,0],"id":32,"left_children":[1,-1,3,5,-1,7,-1,9,11,-1,-1,-1,-1],"loss_changes":[1.6633139E0,0E0,8.7303615E-1,1.1622194E0,0E0,1.3052433E0,0E0,6.1984634E-1,3.1420088E-1,0E0,0E0,0E0,0E0],"parents":[2147483647,0,0,2,2,3,3,5,5,7,7,8,8],"right_children":[2,-1,4,6,-1,8,-1,10,12,-1,-1,-1,-1],"split_conditions":[3.54E2,-2.4819595E-1,8.77E2,7.92E2,-1.8569589E-1,3.0236E3,1.9481978E-1,1.5E3,2.8E1,-4.1034058E-2,1.9510199E-1,-1.6363E-2,-2.0621353E-1],"split_indices":[7,0,7,7,0,0,0,0,9,0,0,0,0],"split_type":[0,0,0,0,0,0,0,0,0,0,0,0,0],"sum_hessian":[1.3623644E1,4.783851E0,8.839793E0,7.24367E0,1.5961232E0,5.870466E0,1.3732035E0,2.506703E0,3.3637636E0,1.3161682E0,1.1905347E0,1.3045106E0,2.059253E0],"tree_param":{"num_deleted":"0","num_feature":"13","num_nodes":"13","size_leaf_vector":"0"}},{"base_weights":[-3.554531E-1,-2.3943672E-1,-8.3191276E-2,1.4127521E-1,-2.082499E-1,-3.706267E-1,1.338465E-1,2.1649353E-2,-5.4800725E-1,1.9416477E-1,-1.5545106E-1,-2.7543234E-2,-2.0727256E-1],"categories":[],"categories_nodes":[],"categories_segments":[],"categories_sizes":[],"default_left":[0,0,0,0,0,0,0,0,0,0,0,0,0],"id":33,"left_children":[1,-1,3,-1,5,7,9,-1,11,-1,-1,-1,-1],"loss_changes":[1.5378417E0,0E0,7.46547E-1,0E0,5.122322E-1,5.039656E-1,1.4785709E0,0E0,2.1937299E-1,0E0,0E0,0E0,0E0],"parents":[2147483647,0,0,2,2,4,4,5,5,6,6,8,8],"right_children":[2,-1,4,-1,6,8,10,-1,12,-1,-1,-1,-1],"split_conditions":[7.7866E2,-2.3943672E-1,1.56546E3,1.4127521E-1,7.92E2,1.4662E4,8.77E2,2.1649353E-2,3.9194E4,1.9416477E-1,-1.5545106E-1,-2.7543234E-2,-2.0727256E-1],"split_indices":[0,0,0,0,7,5,7,0,8,0,0,0,0],"split_type":[0,0,0,0,0,0,0,0,0,0,0,0,0],"sum_hessian":[1.2310759E1,3.952673E0,8.358086E0,1.0297785E0,7.3283067E0,4.912961E0,2.415346E0,1.5748535E0,3.3381073E0,1.3554708E0,1.0598751E0,1.1880063E0,2.1501012E0],"tree_param":{"num_deleted":"0","num_feature":"13","num_nodes":"13","size_leaf_vector":"0"}},{"base_weights":[-3.0629563E-1,-2.3067676E-1,-5.0105885E-2,-1.7507382E-1,1.2482043E-1,4.451954E-1,-1.0341152E-1,-3.833434E-2,2.4986687E-1,8.784009E-2,-4.2023528E-1,-1.7176159E-1,-1.0583608E-2],"categories":[],"categories_nodes":[],"categories_segments":[],"categories_sizes":[],"default_left":[0,0,0,0,0,0,0,0,0,0,0,0,0],"id":34,"left_children":[1,-1,3,-1,5,7,9,-1,-1,-1,11,-1,-1],"loss_changes":[1.4230614E0,0E0,9.1331655E-1,0E0,6.022105E-1,8.512359E-1,7.8250444E-1,0E0,0E0,0E0,1.7502868E-1,0E0,0E0],"parents":[2147483647,0,0,2,2,4,4,5,5,6,6,10,10],"right_children":[2,-1,4,-1,6,8,10,-1,-1,-1,12,-1,-1],"split_conditions":[5.79E2,-2.3067676E-1,4.8E1,-1.7507382E-1,4E0,1.07485E5,2.8E1,-3.833434E-2,2.4986687E-1,8.784009E-2,8.11E2,-1.7176159E-1,-1.0583608E-2],"split_indices":[4,0,3,0,10,8,9,0,0,0,7,0,0],"split_type":[0,0,0,0,0,0,0,0,0,0,0,0,0],"sum_hessian":[1.1331975E1,3.32547E0,8.006505E0,1.4001914E0,6.606313E0,2.3528838E0,4.2534294E0,1.2200979E0,1.1327858E0,1.9236223E0,2.3298073E0,1.320204E0,1.0096034E0],"tree_param":{"num_deleted":"0","num_feature":"13","num_nodes":"13","size_leaf_vector":"0"}},{"base_weights":[-2.6860285E-1,-3.8411507E-1,1.4130214E-1,-2.3934564E-1,-1.8363997E-2,-1.7794149E-1,2.562646E-1,-7.545684E-2,5.0153726E-1,2.286591E-2,2.4218796E-1],"categories":[],"categories_nodes":[],"categories_segments":[],"categories_sizes":[],"default_left":[0,0,0,0,0,0,0,0,0,0,0],"id":35,"left_children":[1,3,-1,-1,5,-1,7,-1,9,-1,-1],"loss_changes":[1.1636763E0,1.5741358E0,0E0,0E0,1.1932639E0,0E0,7.690644E-1,0E0,4.3455434E-1,0E0,0E0],"parents":[2147483647,0,0,1,1,4,4,6,6,8,8],"right_children":[2,4,-1,-1,6,-1,8,-1,10,-1,-1],"split_conditions":[1.63567E5,5.63E2,1.4130214E-1,-2.3934564E-1,1.25E3,-1.7794149E-1,1.8597E4,-7.545684E-2,8.813E3,2.286591E-2,2.4218796E-1],"split_indices":[8,7,0,0,4,0,5,0,0,0,0],"split_type":[0,0,0,0,0,0,0,0,0,0,0],"sum_hessian":[1.0503096E1,9.500032E0,1.0030627E0,3.9034715E0,5.5965614E0,1.4344971E0,4.162064E0,1.3472902E0,2.8147738E0,1.6997052E0,1.1150687E0],"tree_param":{"num_deleted":"0","num_feature":"13","num_nodes":"11","size_leaf_vector":"0"}},{"base_weights":[-2.245847E-1,-3.4260008E-1,1.3722333E-1,-2.2804555E-1,-2.7299698E-2,1.5614851E-1,-2.7856326E-1,-2.0582631E-1,7.222878E-2],"categories":[],"categories_nodes":[],"categories_segments":[],"categories_sizes":[],"default_left":[0,0,0,0,0,0,0,0,0],"id":36,"left_children":[1,3,-1,-1,5,-1,7,-1,-1],"loss_changes":[1.0208507E0,1.2595166E0,0E0,0E0,1.0503778E0,0E0,1.2574189E0,0E0,0E0],"parents":[2147483647,0,0,1,1,4,4,6,6],"right_children":[2,4,-1,-1,6,-1,8,-1,-1],"split_conditions":[1.65571E5,5.63E2,1.3722333E-1,-2.2804555E-1,5.67E2,1.5614851E-1,8.813E3,-2.0582631E-1,7.222878E-2],"split_indices":[8,7,0,0,7,0,0,0,0],"split_type":[0,0,0,0,0,0,0,0,0],"sum_hessian":[9.736547E0,8.724479E0,1.0120691E0,3.146583E0,5.5778956E0,1.417031E0,4.1608644E0,2.1514614E0,2.0094028E0],"tree_param":{"num_deleted":"0","num_feature":"13","num_nodes":"9","size_leaf_vector":"0"}},{"base_weights":[-1.8934844E-1,1.9167833E-3,-1.9679306E-1,-1.5127619E-1,1.454504E-1,1.9791272E-1,-7.244752E-2,-1.6074386E-1,1.528807E-1,-1.4405441E-1,1.405345E-1,1.10657E-1,-1.6561273E-1],"categories":[],"categories_nodes":[],"categories_segments":[],"categories_sizes":[],"default_left":[0,0,0,0,0,0,0,0,0,0,0,0,0],"id":37,"left_children":[1,3,-1,-1,5,-1,7,-1,9,11,-1,-1,-1],"loss_changes":[8.9197737E-1,6.6006535E-1,0E0,0E0,8.397773E-1,0E0,6.9431335E-1,0E0,5.101666E-1,8.730174E-1,0E0,0E0,0E0],"parents":[2147483647,0,0,1,1,4,4,6,6,8,8,9,9],"right_children":[2,4,-1,-1,6,-1,8,-1,10,12,-1,-1,-1],"split_conditions":[7E0,1.2438E4,-1.9679306E-1,-1.5127619E-1,1.4662E4,1.9791272E-1,1.25E3,-1.6074386E-1,8.813E3,3.9194E4,1.405345E-1,1.10657E-1,-1.6561273E-1],"split_indices":[1,5,0,0,5,0,4,0,0,8,0,0,0],"split_type":[0,0,0,0,0,0,0,0,0,0,0,0,0],"sum_hessian":[8.98008E0,7.0757213E0,1.9043586E0,1.0079718E0,6.0677495E0,1.2023917E0,4.865358E0,1.1410269E0,3.7243311E0,2.1988335E0,1.5254978E0,1.0166467E0,1.1821867E0],"tree_param":{"num_deleted":"0","num_feature":"13","num_nodes":"13","size_leaf_vector":"0"}},{"base_weights":[-1.7397593E-1,-2.9444352E-1,1.2127486E-1,-2.0901966E-1,-3.2284196E-2,-1.01556495E-1,1.4032432E-1,3.8924006E-1,-7.101183E-2,1.474538E-1,3.4508184E-2],"categories":[],"categories_nodes":[],"categories_segments":[],"categories_sizes":[],"default_left":[0,0,0,0,0,0,0,0,0,0,0],"id":38,"left_children":[1,3,-1,-1,5,-1,7,9,-1,-1,-1],"loss_changes":[7.7906454E-1,8.6554134E-1,0E0,0E0,3.7240896E-1,0E0,5.2739906E-1,3.241265E-2,0E0,0E0,0E0],"parents":[2147483647,0,0,1,1,4,4,6,6,7,7],"right_children":[2,4,-1,-1,6,-1,8,10,-1,-1,-1],"split_conditions":[1.66894E5,1.25E3,1.2127486E-1,-2.0901966E-1,1.8597E4,-1.01556495E-1,2.7233E4,4.25E3,-7.101183E-2,1.474538E-1,3.4508184E-2],"split_indices":[8,4,0,0,5,0,5,0,0,0,0],"split_type":[0,0,0,0,0,0,0,0,0,0,0],"sum_hessian":[8.475453E0,7.4202895E0,1.0551639E0,2.273655E0,5.1466346E0,1.5087105E0,3.6379242E0,2.1717498E0,1.4661744E0,1.0046118E0,1.167138E0],"tree_param":{"num_deleted":"0","num_feature":"13","num_nodes":"11","size_leaf_vector":"0"}},{"base_weights":[-1.4365026E-1,-2.692109E-1,1.2913884E-1,-2.0398615E-1,-1.01860985E-2,1.0176414E-1,-1.9540994E-1,-1.787787E-1,5.7274904E-2],"categories":[],"categories_nodes":[],"categories_segments":[],"categories_sizes":[],"default_left":[0,0,0,0,0,0,0,0,0],"id":39,"left_children":[1,3,-1,-1,5,-1,7,-1,-1],"loss_changes":[7.672576E-1,8.473749E-1,0E0,0E0,4.5067465E-1,0E0,8.125726E-1,0E0,0E0],"parents":[2147483647,0,0,1,1,4,4,6,6],"right_children":[2,4,-1,-1,6,-1,8,-1,-1],"split_conditions":[1.68249E5,5.63E2,1.2913884E-1,-2.0398615E-1,5.67E2,1.0176414E-1,5E0,-1.787787E-1,5.7274904E-2],"split_indices":[8,7,0,0,7,0,2,0,0],"split_type":[0,0,0,0,0,0,0,0,0],"sum_hessian":[8.036041E0,7.029703E0,1.0063384E0,2.0901854E0,4.939518E0,1.4232936E0,3.5162244E0,1.4600166E0,2.056208E0],"tree_param":{"num_deleted":"0","num_feature":"13","num_nodes":"9","size_leaf_vector":"0"}},{"base_weights":[-1.2469788E-1,1.993223E-1,-3.1524572E-1,-5.0834294E-2,1.3554694E-1,-4.9685058E-1,1.0284358E-3,-1.8705201E-1,-2.8253796E-2,6.893971E-2,-6.465354E-2],"categories":[],"categories_nodes":[],"categories_segments":[],"categories_sizes":[],"default_left":[0,0,0,0,0,0,0,0,0,0,0],"id":40,"left_children":[1,3,5,-1,-1,7,9,-1,-1,-1,-1],"loss_changes":[5.952683E-1,4.3095648E-1,3.3465517E-1,0E0,0E0,1.298613E-1,2.0408006E-1,0E0,0E0,0E0,0E0],"parents":[2147483647,0,0,1,1,2,2,5,5,6,6],"right_children":[2,4,6,-1,-1,8,10,-1,-1,-1,-1],"split_conditions":[4E0,3.56E2,1.56E3,-5.0834294E-2,1.3554694E-1,8.11E2,4.0555E4,-1.8705201E-1,-2.8253796E-2,6.893971E-2,-6.465354E-2],"split_indices":[10,9,4,0,0,7,8,0,0,0,0],"split_type":[0,0,0,0,0,0,0,0,0,0,0],"sum_hessian":[7.623602E0,2.8060167E0,4.8175855E0,1.2741219E0,1.5318949E0,2.6976461E0,2.1199393E0,1.6349602E0,1.0626858E0,1.0010836E0,1.1188557E0],"tree_param":{"num_deleted":"0","num_feature":"13","num_nodes":"11","size_leaf_vector":"0"}},{"base_weights":[-1.0971052E-1,-2.2466709E-1,1.0297728E-1,-1.8504295E-1,-7.447939E-3,-2.339592E-1,2.168002E-1,-8.41871E-2,-1.8878968E-2,-2.394445E-2,1.157922E-1],"categories":[],"categories_nodes":[],"categories_segments":[],"categories_sizes":[],"default_left":[0,0,0,0,0,0,0,0,0,0,0],"id":41,"left_children":[1,3,-1,-1,5,7,9,-1,-1,-1,-1],"loss_changes":[5.1343226E-1,6.161576E-1,0E0,0E0,3.4034964E-1,8.818209E-3,2.0062913E-1,0E0,0E0,0E0,0E0],"parents":[2147483647,0,0,1,1,4,4,5,5,6,6],"right_children":[2,4,-1,-1,6,8,10,-1,-1,-1,-1],"split_conditions":[1.68249E5,5.63E2,1.0297728E-1,-1.8504295E-1,2.435E4,7.8536E3,1.56E3,-8.41871E-2,-1.8878968E-2,-2.394445E-2,1.157922E-1],"split_indices":[8,7,0,0,5,0,4,0,0,0,0],"split_type":[0,0,0,0,0,0,0,0,0,0,0],"sum_hessian":[7.3790984E0,6.287449E0,1.0916495E0,1.5855335E0,4.7019157E0,2.3176105E0,2.384305E0,1.3173782E0,1.0002325E0,1.0578202E0,1.3264847E0],"tree_param":{"num_deleted":"0","num_feature":"13","num_nodes":"11","size_leaf_vector":"0"}},{"base_weights":[-9.507322E-2,3.4489475E-2,-1.5123963E-1,1.1665827E-1,-1.7995995E-1,-1.4792871E-1,6.571823E-2],"categories":[],"categories_nodes":[],"categories_segments":[],"categories_sizes":[],"default_left":[0,0,0,0,0,0,0],"id":42,"left_children":[1,3,-1,-1,5,-1,-1],"loss_changes":[4.4738623E-1,6.093682E-1,0E0,0E0,7.459321E-1,0E0,0E0],"parents":[2147483647,0,0,1,1,4,4],"right_children":[2,4,-1,-1,6,-1,-1],"split_conditions":[7E0,3.0236E3,-1.5123963E-1,1.1665827E-1,7.92E2,-1.4792871E-1,6.571823E-2],"split_indices":[1,0,0,0,7,0,0],"split_type":[0,0,0,0,0,0,0],"sum_hessian":[7.113377E0,6.0977125E0,1.0156647E0,1.9922609E0,4.1054516E0,2.1681824E0,1.937269E0],"tree_param":{"num_deleted":"0","num_feature":"13","num_nodes":"7","size_leaf_vector":"0"}},{"base_weights":[-8.565451E-2,1.7076296E-1,-2.5271368E-1,1.12380914E-1,-4.965183E-2,-2.2254111E-2,-1.6818139E-1,-5.7932682E-2,5.688396E-2],"categories":[],"categories_nodes":[],"categories_segments":[],"categories_sizes":[],"default_left":[0,0,0,0,0,0,0,0,0],"id":43,"left_children":[1,3,5,-1,-1,7,-1,-1,-1],"loss_changes":[3.894612E-1,3.2150936E-1,3.6347562E-1,0E0,0E0,1.8399987E-1,0E0,0E0,0E0],"parents":[2147483647,0,0,1,1,2,2,5,5],"right_children":[2,4,6,-1,-1,8,-1,-1,-1],"split_conditions":[4E0,1.265E3,1.35904E5,1.12380914E-1,-4.965183E-2,5.2719E4,-1.6818139E-1,-5.7932682E-2,5.688396E-2],"split_indices":[10,4,8,0,0,8,0,0,0],"split_type":[0,0,0,0,0,0,0,0,0],"sum_hessian":[7.0843196E0,2.785978E0,4.2983413E0,1.6635606E0,1.1224176E0,3.0715408E0,1.2268006E0,1.7493565E0,1.3221842E0],"tree_param":{"num_deleted":"0","num_feature":"13","num_nodes":"9","size_leaf_vector":"0"}},{"base_weights":[-7.718438E-2,6.542337E-2,-1.0590024E-1,1.36399E-1,-2.0289811E-1,-1.1385005E-1,2.6510444E-2],"categories":[],"categories_nodes":[],"categories_segments":[],"categories_sizes":[],"default_left":[0,0,0,0,0,0,0],"id":44,"left_children":[1,3,-1,-1,5,-1,-1],"loss_changes":[3.382854E-1,7.3204094E-1,0E0,0E0,2.556249E-1,0E0,0E0],"parents":[2147483647,0,0,1,1,4,4],"right_children":[2,4,-1,-1,6,-1,-1],"split_conditions":[2.7233E4,3.0236E3,-1.0590024E-1,1.36399E-1,7.92E2,-1.1385005E-1,2.6510444E-2],"split_indices":[5,0,0,0,7,0,0],"split_type":[0,0,0,0,0,0,0],"sum_hessian":[7.013283E0,5.1258307E0,1.8874516E0,1.8082397E0,3.3175912E0,1.8767428E0,1.4408484E0],"tree_param":{"num_deleted":"0","num_feature":"13","num_nodes":"7","size_leaf_vector":"0"}},{"base_weights":[-6.4973176E-2,-1.5696886E-1,7.639512E-2,-1.7511968E-1,6.008452E-2,2.1882197E-1,-7.22656E-2,-2.6730434E-3,1.0008414E-1],"categories":[],"categories_nodes":[],"categories_segments":[],"categories_sizes":[],"default_left":[0,0,0,0,0,0,0,0,0],"id":45,"left_children":[1,3,-1,-1,5,7,-1,-1,-1],"loss_changes":[2.736582E-1,6.6402054E-1,0E0,0E0,3.1105193E-1,1.0921891E-1,0E0,0E0,0E0],"parents":[2147483647,0,0,1,1,4,4,5,5],"right_children":[2,4,-1,-1,6,8,-1,-1,-1],"split_conditions":[1.68249E5,1.25E3,7.639512E-2,-1.7511968E-1,1.89E2,5.2719E4,-7.22656E-2,-2.6730434E-3,1.0008414E-1],"split_indices":[8,4,0,0,9,8,0,0,0],"split_type":[0,0,0,0,0,0,0,0,0],"sum_hessian":[6.9474254E0,5.7898545E0,1.1575711E0,1.3824253E0,4.407429E0,3.064235E0,1.3431941E0,1.3360548E0,1.7281802E0],"tree_param":{"num_deleted":"0","num_feature":"13","num_nodes":"9","size_leaf_vector":"0"}},{"base_weights":[-5.9490442E-2,1.5069929E-1,-2.049495E-1,-3.6758967E-2,9.418777E-2,3.2231424E-2,-4.2480418E-1,-1.6047898E-1,-3.0131038E-2],"categories":[],"categories_nodes":[],"categories_segments":[],"categories_sizes":[],"default_left":[0,0,0,0,0,0,0,0,0],"id":46,"left_children":[1,3,5,-1,-1,-1,7,-1,-1],"loss_changes":[2.7039033E-1,2.0709343E-1,3.927083E-1,0E0,0E0,0E0,5.9432685E-2,0E0,0E0],"parents":[2147483647,0,0,1,1,2,2,6,6],"right_children":[2,4,6,-1,-1,-1,8,-1,-1],"split_conditions":[4E0,3.56E2,5.3408E4,-3.6758967E-2,9.418777E-2,3.2231424E-2,8.11E2,-1.6047898E-1,-3.0131038E-2],"split_indices":[10,9,8,0,0,0,7,0,0],"split_type":[0,0,0,0,0,0,0,0,0],"sum_hessian":[6.8336024E0,2.7801843E0,4.053418E0,1.1331846E0,1.6469997E0,1.8855692E0,2.167849E0,1.1337739E0,1.0340751E0],"tree_param":{"num_deleted":"0","num_feature":"13","num_nodes":"9","size_leaf_vector":"0"}},{"base_weights":[-5.7800844E-2,1.1735871E-1,-1.8375832E-1,8.118767E-2,-4.320126E-2,3.1740412E-2,-1.18702866E-1],"categories":[],"categories_nodes":[],"categories_segments":[],"categories_sizes":[],"default_left":[0,0,0,0,0,0,0],"id":47,"left_children":[1,3,5,-1,-1,-1,-1],"loss_changes":[1.92081E-1,1.9292201E-1,3.416524E-1,0E0,0E0,0E0,0E0],"parents":[2147483647,0,0,1,1,2,2],"right_children":[2,4,6,-1,-1,-1,-1],"split_conditions":[4E0,1.265E3,2.8E1,8.118767E-2,-4.320126E-2,3.1740412E-2,-1.18702866E-1],"split_indices":[10,4,9,0,0,0,0],"split_type":[0,0,0,0,0,0,0],"sum_hessian":[6.7286873E0,2.8431711E0,3.8855162E0,1.7698603E0,1.0733107E0,1.8535761E0,2.03194E0],"tree_param":{"num_deleted":"0","num_feature":"13","num_nodes":"7","size_leaf_vector":"0"}},{"base_weights":[-4.9783643E-2,5.669445E-2,-8.366371E-2,1.0603439E-1,-1.6350509E-1,-1.0402767E-1,3.533212E-2],"categories":[],"categories_nodes":[],"categories_segments":[],"categories_sizes":[],"default_left":[0,0,0,0,0,0,0],"id":48,"left_children":[1,3,-1,-1,5,-1,-1],"loss_changes":[2.0138432E-1,4.514709E-1,0E0,0E0,2.5434646E-1,0E0,0E0],"parents":[2147483647,0,0,1,1,4,4],"right_children":[2,4,-1,-1,6,-1,-1],"split_conditions":[2.7233E4,3.0236E3,-8.366371E-2,1.0603439E-1,7.92E2,-1.0402767E-1,3.533212E-2],"split_indices":[5,0,0,0,7,0,0],"split_type":[0,0,0,0,0,0,0],"sum_hessian":[6.607452E0,5.0246453E0,1.582807E0,1.8825233E0,3.1421218E0,1.7616249E0,1.3804969E0],"tree_param":{"num_deleted":"0","num_feature":"13","num_nodes":"7","size_leaf_vector":"0"}},{"base_weights":[-4.3167982E-2,-1.4758344E-1,1.6228282E-1,1.0061286E-1,-1.6708101E-1,1.0785414E-1,-3.4983806E-2,9.767379E-2,-6.288213E-2],"categories":[],"categories_nodes":[],"categories_segments":[],"categories_sizes":[],"default_left":[0,0,0,0,0,0,0,0,0],"id":49,"left_children":[1,3,5,7,-1,-1,-1,-1,-1],"loss_changes":[1.8667117E-1,6.202176E-1,2.0872015E-1,3.6861318E-1,0E0,0E0,0E0,0E0,0E0],"parents":[2147483647,0,0,1,1,2,2,3,3],"right_children":[2,4,6,8,-1,-1,-1,-1,-1],"split_conditions":[8.813E3,5.67E2,1.002124E4,3.0236E3,-1.6708101E-1,1.0785414E-1,-3.4983806E-2,9.767379E-2,-6.288213E-2],"split_indices":[0,7,0,0,0,0,0,0,0],"split_type":[0,0,0,0,0,0,0,0,0],"sum_hessian":[6.585264E0,4.552981E0,2.0322833E0,3.3039608E0,1.2490202E0,1.0211076E0,1.0111758E0,1.8864366E0,1.4175242E0],"tree_param":{"num_deleted":"0","num_feature":"13","num_nodes":"9","size_leaf_vector":"0"}},{"base_weights":[-4.195343E-2,5.168455E-2,-7.577323E-2,1.9694798E-1,-7.367231E-2,-1.6722133E-2,1.31144E-1,-7.48412E-2,8.115479E-2],"categories":[],"categories_nodes":[],"categories_segments":[],"categories_sizes":[],"default_left":[0,0,0,0,0,0,0,0,0],"id":50,"left_children":[1,3,-1,5,-1,7,-1,-1,-1],"loss_changes":[1.6150163E-1,3.092014E-1,0E0,2.4404413E-1,0E0,2.9507524E-1,0E0,0E0,0E0],"parents":[2147483647,0,0,1,1,3,3,5,5],"right_children":[2,4,-1,6,-1,8,-1,-1,-1],"split_conditions":[2.7233E4,7.96E2,-7.577323E-2,2.435E4,-7.367231E-2,1.68249E5,1.31144E-1,-7.48412E-2,8.115479E-2],"split_indices":[5,7,0,5,0,8,0,0,0],"split_type":[0,0,0,0,0,0,0,0,0],"sum_hessian":[6.5268345E0,5.040549E0,1.4862854E0,3.6126065E0,1.4279425E0,2.4042628E0,1.2083436E0,1.4007348E0,1.003528E0],"tree_param":{"num_deleted":"0","num_feature":"13","num_nodes":"9","size_leaf_vector":"0"}},{"base_weights":[-3.3488262E-2,-1.4001742E-1,5.0181683E-2,-3.390012E-1,6.266455E-2,-1.8599603E-1,4.623652E-2],"categories":[],"categories_nodes":[],"categories_segments":[],"categories_sizes":[],"default_left":[0,0,0,0,0,0,0],"id":51,"left_children":[1,3,-1,5,-1,-1,-1],"loss_changes":[1.798406E-1,4.403385E-1,0E0,6.1803603E-1,0E0,0E0,0E0],"parents":[2147483647,0,0,1,1,3,3],"right_children":[2,4,-1,6,-1,-1,-1],"split_conditions":[8.813E3,6E0,5.0181683E-2,1.68249E5,6.266455E-2,-1.8599603E-1,4.623652E-2],"split_indices":[0,10,0,8,0,0,0],"split_type":[0,0,0,0,0,0,0],"sum_hessian":[6.3138194E0,4.32266E0,1.9911596E0,2.7707937E0,1.5518663E0,1.6011688E0,1.1696249E0],"tree_param":{"num_deleted":"0","num_feature":"13","num_nodes":"7","size_leaf_vector":"0"}},{"base_weights":[-3.170683E-2,-1.7713386E-1,9.3033366E-2,-1.5829787E-1,5.484775E-2,-4.9715865E-2,1.0711789E-1],"categories":[],"categories_nodes":[],"categories_segments":[],"categories_sizes":[],"default_left":[0,0,0,0,0,0,0],"id":52,"left_children":[1,3,5,-1,-1,-1,-1],"loss_changes":[1.464763E-1,5.5739236E-1,3.674916E-1,0E0,0E0,0E0,0E0],"parents":[2147483647,0,0,1,1,2,2],"right_children":[2,4,6,-1,-1,-1,-1],"split_conditions":[1.79E2,6E0,8.813E3,-1.5829787E-1,5.484775E-2,-4.9715865E-2,1.0711789E-1],"split_indices":[9,10,0,0,0,0,0],"split_type":[0,0,0,0,0,0,0],"sum_hessian":[6.166078E0,2.6530387E0,3.5130394E0,1.1080977E0,1.5449411E0,1.9622843E0,1.550755E0],"tree_param":{"num_deleted":"0","num_feature":"13","num_nodes":"7","size_leaf_vector":"0"}},{"base_weights":[-3.197652E-2,1.3316683E-1,-1.5802023E-1,-6.177198E-3,7.8161314E-2,2.4483837E-2,-1.01607166E-1],"categories":[],"categories_nodes":[],"categories_segments":[],"categories_sizes":[],"default_left":[0,0,0,0,0,0,0],"id":53,"left_children":[1,3,5,-1,-1,-1,-1],"loss_changes":[1.677823E-1,7.575378E-2,2.2053695E-1,0E0,0E0,0E0,0E0],"parents":[2147483647,0,0,1,1,2,2],"right_children":[2,4,6,-1,-1,-1,-1],"split_conditions":[4E0,7.92E2,2.8E1,-6.177198E-3,7.8161314E-2,2.4483837E-2,-1.01607166E-1],"split_indices":[10,7,9,0,0,0,0],"split_type":[0,0,0,0,0,0,0],"sum_hessian":[6.0495934E0,2.5941744E0,3.4554188E0,1.5551703E0,1.0390042E0,1.7210169E0,1.7344021E0],"tree_param":{"num_deleted":"0","num_feature":"13","num_nodes":"7","size_leaf_vector":"0"}},{"base_weights":[-2.474036E-2,-1.6447382E-1,8.963393E-2,2.7880326E-2,-1.07729115E-1,-3.773769E-2,8.749274E-2],"categories":[],"categories_nodes":[],"categories_segments":[],"categories_sizes":[],"default_left":[0,0,0,0,0,0,0],"id":54,"left_children":[1,3,5,-1,-1,-1,-1],"loss_changes":[1.2592664E-1,2.0791456E-1,2.3133494E-1,0E0,0E0,0E0,0E0],"parents":[2147483647,0,0,1,1,2,2],"right_children":[2,4,6,-1,-1,-1,-1],"split_conditions":[1.79E2,4.25E3,8.813E3,2.7880326E-2,-1.07729115E-1,-3.773769E-2,8.749274E-2],"split_indices":[9,0,0,0,0,0,0],"split_type":[0,0,0,0,0,0,0],"sum_hessian":[5.9568763E0,2.4840405E0,3.4728358E0,1.294469E0,1.1895715E0,1.8631862E0,1.6096495E0],"tree_param":{"num_deleted":"0","num_feature":"13","num_nodes":"7","size_leaf_vector":"0"}},{"base_weights":[-2.2858083E-2,6.458368E-2,-6.7368306E-2,9.947548E-2,-1.21680334E-1,-8.457174E-2,2.2264576E-2],"categories":[],"categories_nodes":[],"categories_segments":[],"categories_sizes":[],"default_left":[0,0,0,0,0,0,0],"id":55,"left_children":[1,3,-1,-1,5,-1,-1],"loss_changes":[1.3684128E-1,3.1961325E-1,0E0,0E0,1.4770588E-1,0E0,0E0],"parents":[2147483647,0,0,1,1,4,4],"right_children":[2,4,-1,-1,6,-1,-1],"split_conditions":[2.7233E4,2.73144E3,-6.7368306E-2,9.947548E-2,1.56E3,-8.457174E-2,2.2264576E-2],"split_indices":[5,0,0,0,4,0,0],"split_type":[0,0,0,0,0,0,0],"sum_hessian":[5.9363556E0,4.615335E0,1.3210207E0,1.5760084E0,3.0393262E0,1.4303575E0,1.6089689E0],"tree_param":{"num_deleted":"0","num_feature":"13","num_nodes":"7","size_leaf_vector":"0"}},{"base_weights":[-2.2099249E-2,-6.085167E-2,6.739362E-2,-2.02797E-1,9.225898E-2,-1.516872E-1,5.452592E-2],"categories":[],"categories_nodes":[],"categories_segments":[],"categories_sizes":[],"default_left":[0,0,0,0,0,0,0],"id":56,"left_children":[1,-1,3,5,-1,-1,-1],"loss_changes":[1.2505908E-1,0E0,4.0991145E-1,4.5559597E-1,0E0,0E0,0E0],"parents":[2147483647,0,0,2,2,3,3],"right_children":[2,-1,4,6,-1,-1,-1],"split_conditions":[5.2719E4,-6.085167E-2,4.961E3,1.68249E5,9.225898E-2,-1.516872E-1,5.452592E-2],"split_indices":[8,0,0,8,0,0,0],"split_type":[0,0,0,0,0,0,0],"sum_hessian":[5.886531E0,1.530003E0,4.356528E0,2.1231484E0,2.2333796E0,1.0116469E0,1.1115016E0],"tree_param":{"num_deleted":"0","num_feature":"13","num_nodes":"7","size_leaf_vector":"0"}},{"base_weights":[-2.7735088E-2,5.5464745E-2,-6.552498E-2,-4.3337934E-2,1.9588645E-1,-6.3906712E-3,8.975048E-2],"categories":[],"categories_nodes":[],"categories_segments":[],"categories_sizes":[],"default_left":[0,0,0,0,0,0,0],"id":57,"left_children":[1,3,-1,-1,5,-1,-1],"loss_changes":[1.2115125E-1,1.8502095E-1,0E0,0E0,8.945362E-2,0E0,0E0],"parents":[2147483647,0,0,1,1,4,4],"right_children":[2,4,-1,-1,6,-1,-1],"split_conditions":[8.15E2,5.63E2,-6.552498E-2,-4.3337934E-2,5.2719E4,-6.3906712E-3,8.975048E-2],"split_indices":[7,7,0,0,8,0,0],"split_type":[0,0,0,0,0,0,0],"sum_hessian":[5.872935E0,4.5825567E0,1.290378E0,1.878829E0,2.7037277E0,1.1271724E0,1.5765554E0],"tree_param":{"num_deleted":"0","num_feature":"13","num_nodes":"7","size_leaf_vector":"0"}},{"base_weights":[-2.4273606E-2,1.07145995E-1,-1.2725602E-1,7.392811E-2,-1.5063335E-2,3.5534963E-2,-9.742358E-2],"categories":[],"categories_nodes":[],"categories_segments":[],"categories_sizes":[],"default_left":[0,0,0,0,0,0,0],"id":58,"left_children":[1,3,5,-1,-1,-1,-1],"loss_changes":[1.0608204E-1,9.004532E-2,2.4648175E-1,0E0,0E0,0E0,0E0],"parents":[2147483647,0,0,1,1,2,2],"right_children":[2,4,6,-1,-1,-1,-1],"split_conditions":[4E0,2.73144E3,5.3408E4,7.392811E-2,-1.5063335E-2,3.5534963E-2,-9.742358E-2],"split_indices":[10,0,8,0,0,0,0],"split_type":[0,0,0,0,0,0,0],"sum_hessian":[5.830774E0,2.5439353E0,3.2868385E0,1.0492125E0,1.494723E0,1.6429664E0,1.6438721E0],"tree_param":{"num_deleted":"0","num_feature":"13","num_nodes":"7","size_leaf_vector":"0"}},{"base_weights":[-1.8856939E-2,-5.3696312E-2,6.0822535E-2,-5.20696E-2,2.5408408E-1,1.374437E-1,-3.0250726E-2],"categories":[],"categories_nodes":[],"categories_segments":[],"categories_sizes":[],"default_left":[0,0,0,0,0,0,0],"id":59,"left_children":[1,-1,3,-1,5,-1,-1],"loss_changes":[9.705863E-2,0E0,2.82193E-1,0E0,2.842353E-1,0E0,0E0],"parents":[2147483647,0,0,2,2,4,4],"right_children":[2,-1,4,-1,6,-1,-1],"split_conditions":[5.2719E4,-5.3696312E-2,4.961E3,-5.20696E-2,1.08184E5,1.374437E-1,-3.0250726E-2],"split_indices":[8,0,0,0,8,0,0],"split_type":[0,0,0,0,0,0,0],"sum_hessian":[5.753761E0,1.497636E0,4.256125E0,1.9694673E0,2.2866576E0,1.2672234E0,1.0194342E0],"tree_param":{"num_deleted":"0","num_feature":"13","num_nodes":"7","size_leaf_vector":"0"}},{"base_weights":[-1.4261321E-2,1.3697119E-1,-1.156708E-1,-1.5283321E-2,8.1181206E-2,-9.619625E-2,3.5828687E-2],"categories":[],"categories_nodes":[],"categories_segments":[],"categories_sizes":[],"default_left":[0,0,0,0,0,0,0],"id":60,"left_children":[1,3,5,-1,-1,-1,-1],"loss_changes":[1.1876367E-1,9.292641E-2,2.5801444E-1,0E0,0E0,0E0,0E0],"parents":[2147483647,0,0,1,1,2,2],"right_children":[2,4,6,-1,-1,-1,-1],"split_conditions":[3.0236E3,1.40614E5,7.92E2,-1.5283321E-2,8.1181206E-2,-9.619625E-2,3.5828687E-2],"split_indices":[0,8,7,0,0,0,0],"split_type":[0,0,0,0,0,0,0],"sum_hessian":[5.7108335E0,2.1515465E0,3.5592873E0,1.1513216E0,1.0002248E0,1.7070258E0,1.8522614E0],"tree_param":{"num_deleted":"0","num_feature":"13","num_nodes":"7","size_leaf_vector":"0"}},{"base_weights":[-1.004654E-2,7.662132E-2,-6.481312E-2,-3.326635E-2,1.9582884E-1,9.6724756E-2,-1.7328291E-3],"categories":[],"categories_nodes":[],"categories_segments":[],"categories_sizes":[],"default_left":[0,0,0,0,0,0,0],"id":61,"left_children":[1,3,-1,-1,5,-1,-1],"loss_changes":[1.3637376E-1,1.438066E-1,0E0,0E0,9.63075E-2,0E0,0E0],"parents":[2147483647,0,0,1,1,4,4],"right_children":[2,4,-1,-1,6,-1,-1],"split_conditions":[8.15E2,5.63E2,-6.481312E-2,-3.326635E-2,5.67E2,9.6724756E-2,-1.7328291E-3],"split_indices":[7,7,0,0,7,0,0],"split_type":[0,0,0,0,0,0,0],"sum_hessian":[5.711362E0,4.462099E0,1.2492629E0,1.7613503E0,2.700749E0,1.2909319E0,1.409817E0],"tree_param":{"num_deleted":"0","num_feature":"13","num_nodes":"7","size_leaf_vector":"0"}},{"base_weights":[-8.037483E-3,6.518856E-2,-5.5740025E-2,5.948437E-2,-6.6258885E-2,-7.4584164E-2,5.6857277E-2],"categories":[],"categories_nodes":[],"categories_segments":[],"categories_sizes":[],"default_left":[0,0,0,0,0,0,0],"id":62,"left_children":[1,3,-1,-1,5,-1,-1],"loss_changes":[9.823436E-2,1.0806769E-1,0E0,0E0,2.0941423E-1,0E0,0E0],"parents":[2147483647,0,0,1,1,4,4],"right_children":[2,4,-1,-1,6,-1,-1],"split_conditions":[8.15E2,3.0236E3,-5.5740025E-2,5.948437E-2,6.67E2,-7.4584164E-2,5.6857277E-2],"split_indices":[7,0,0,0,7,0,0],"split_type":[0,0,0,0,0,0,0],"sum_hessian":[5.616218E0,4.4262066E0,1.1900115E0,1.9466982E0,2.4795084E0,1.4638892E0,1.015619E0],"tree_param":{"num_deleted":"0","num_feature":"13","num_nodes":"7","size_leaf_vector":"0"}},{"base_weights":[-8.566542E-3,8.9759305E-2,-1.170342E-1,9.0035245E-2,-4.557945E-2,1.729676E-2,-7.002016E-2],"categories":[],"categories_nodes":[],"categories_segments":[],"categories_sizes":[],"default_left":[0,0,0,0,0,0,0],"id":63,"left_children":[1,3,5,-1,-1,-1,-1],"loss_changes":[8.1134655E-2,2.509758E-1,8.629009E-2,0E0,0E0,0E0,0E0],"parents":[2147483647,0,0,1,1,2,2],"right_children":[2,4,6,-1,-1,-1,-1],"split_conditions":[5.67E2,1.4662E4,4E0,9.0035245E-2,-4.557945E-2,1.729676E-2,-7.002016E-2],"split_indices":[7,5,10,0,0,0,0],"split_type":[0,0,0,0,0,0,0],"sum_hessian":[5.622466E0,3.0395734E0,2.5828924E0,1.4958785E0,1.543695E0,1.2343732E0,1.3485192E0],"tree_param":{"num_deleted":"0","num_feature":"13","num_nodes":"7","size_leaf_vector":"0"}},{"base_weights":[-8.189685E-3,-8.867127E-2,1.0561909E-1,3.9652936E-2,-8.886126E-2,-2.6711714E-3,5.257459E-2],"categories":[],"categories_nodes":[],"categories_segments":[],"categories_sizes":[],"default_left":[0,0,0,0,0,0,0],"id":64,"left_children":[1,3,5,-1,-1,-1,-1],"loss_changes":[6.97954E-2,2.4119386E-1,2.699244E-2,0E0,0E0,0E0,0E0],"parents":[2147483647,0,0,1,1,2,2],"right_children":[2,4,6,-1,-1,-1,-1],"split_conditions":[1.56E3,3E0,5.2719E4,3.9652936E-2,-8.886126E-2,-2.6711714E-3,5.257459E-2],"split_indices":[4,10,8,0,0,0,0],"split_type":[0,0,0,0,0,0,0],"sum_hessian":[5.597517E0,3.4082189E0,2.1892984E0,1.827053E0,1.581166E0,1.1575483E0,1.03175E0],"tree_param":{"num_deleted":"0","num_feature":"13","num_nodes":"7","size_leaf_vector":"0"}},{"base_weights":[-6.6720373E-3,-4.1561756E-2,7.075679E-2,2.156695E-1,-7.0931725E-2,-1.3766553E-3,9.417672E-2],"categories":[],"categories_nodes":[],"categories_segments":[],"categories_sizes":[],"default_left":[0,0,0,0,0,0,0],"id":65,"left_children":[1,-1,3,5,-1,-1,-1],"loss_changes":[7.669874E-2,0E0,2.642231E-1,8.3191395E-2,0E0,0E0,0E0],"parents":[2147483647,0,0,2,2,3,3],"right_children":[2,-1,4,6,-1,-1,-1],"split_conditions":[5.63E2,-4.1561756E-2,1.89E2,5.2719E4,-7.0931725E-2,-1.3766553E-3,9.417672E-2],"split_indices":[7,0,9,8,0,0,0],"split_type":[0,0,0,0,0,0,0],"sum_hessian":[5.551819E0,1.761909E0,3.7899096E0,2.7775872E0,1.0123225E0,1.1508856E0,1.6267016E0],"tree_param":{"num_deleted":"0","num_feature":"13","num_nodes":"7","size_leaf_vector":"0"}},{"base_weights":[-8.720247E-3,5.7303466E-2,-5.194313E-2,-3.4315318E-2,1.6760969E-1,8.237832E-2,-1.6480013E-3],"categories":[],"categories_nodes":[],"categories_segments":[],"categories_sizes":[],"default_left":[0,0,0,0,0,0,0],"id":66,"left_children":[1,3,-1,-1,5,-1,-1],"loss_changes":[8.092644E-2,1.21781215E-1,0E0,0E0,7.0110805E-2,0E0,0E0],"parents":[2147483647,0,0,1,1,4,4],"right_children":[2,4,-1,-1,6,-1,-1],"split_conditions":[8.15E2,5.63E2,-5.194313E-2,-3.4315318E-2,5.67E2,8.237832E-2,-1.6480013E-3],"split_indices":[7,7,0,0,7,0,0],"split_type":[0,0,0,0,0,0,0],"sum_hessian":[5.540685E0,4.4181004E0,1.1225848E0,1.7137445E0,2.7043557E0,1.3090214E0,1.3953344E0],"tree_param":{"num_deleted":"0","num_feature":"13","num_nodes":"7","size_leaf_vector":"0"}},{"base_weights":[-7.3173475E-3,-1.2595752E-1,8.574745E-2,4.4872172E-2,-1.03978574E-1,8.29843E-2,-6.3137814E-2,-8.518104E-2,6.226858E-2],"categories":[],"categories_nodes":[],"categories_segments":[],"categories_sizes":[],"default_left":[0,0,0,0,0,0,0,0,0],"id":67,"left_children":[1,3,5,-1,-1,-1,7,-1,-1],"loss_changes":[8.214256E-2,2.491412E-1,1.3727117E-1,0E0,0E0,0E0,2.4916063E-1,0E0,0E0],"parents":[2147483647,0,0,1,1,2,2,6,6],"right_children":[2,4,6,-1,-1,-1,8,-1,-1],"split_conditions":[1.79E2,4.25E3,1.89E2,4.4872172E-2,-1.03978574E-1,8.29843E-2,1.68249E5,-8.518104E-2,6.226858E-2],"split_indices":[9,0,9,0,0,0,8,0,0],"split_type":[0,0,0,0,0,0,0,0,0],"sum_hessian":[5.461424E0,2.245453E0,3.2159708E0,1.1417384E0,1.1037146E0,1.0333464E0,2.1826243E0,1.1751786E0,1.0074457E0],"tree_param":{"num_deleted":"0","num_feature":"13","num_nodes":"9","size_leaf_vector":"0"}},{"base_weights":[-6.33098E-3,5.4188717E-2,-4.7739696E-2,7.543756E-2,-1.0780961E-1,-7.2605945E-2,2.7849613E-2],"categories":[],"categories_nodes":[],"categories_segments":[],"categories_sizes":[],"default_left":[0,0,0,0,0,0,0],"id":68,"left_children":[1,3,-1,-1,5,-1,-1],"loss_changes":[6.8090215E-2,1.981522E-1,0E0,0E0,1.2045206E-1,0E0,0E0],"parents":[2147483647,0,0,1,1,4,4],"right_children":[2,4,-1,-1,6,-1,-1],"split_conditions":[2.7233E4,3.0236E3,-4.7739696E-2,7.543756E-2,5E0,-7.2605945E-2,2.7849613E-2],"split_indices":[5,0,0,0,2,0,0],"split_type":[0,0,0,0,0,0,0],"sum_hessian":[5.430614E0,4.3522086E0,1.078405E0,1.7134565E0,2.6387522E0,1.4575564E0,1.1811957E0],"tree_param":{"num_deleted":"0","num_feature":"13","num_nodes":"7","size_leaf_vector":"0"}},{"base_weights":[-7.817867E-3,-8.9600526E-2,1.0604784E-1,3.1499255E-2,-8.279505E-2,-5.425085E-3,5.5087894E-2],"categories":[],"categories_nodes":[],"categories_segments":[],"categories_sizes":[],"default_left":[0,0,0,0,0,0,0],"id":69,"left_children":[1,3,5,-1,-1,-1,-1],"loss_changes":[6.946726E-2,1.845645E-1,3.3651955E-2,0E0,0E0,0E0,0E0],"parents":[2147483647,0,0,1,1,2,2],"right_children":[2,4,6,-1,-1,-1,-1],"split_conditions":[1.56E3,3E0,5.2719E4,3.1499255E-2,-8.279505E-2,-5.425085E-3,5.5087894E-2],"split_indices":[4,10,8,0,0,0,0],"split_type":[0,0,0,0,0,0,0],"sum_hessian":[5.4394083E0,3.2897143E0,2.149694E0,1.8230101E0,1.4667041E0,1.1217337E0,1.0279602E0],"tree_param":{"num_deleted":"0","num_feature":"13","num_nodes":"7","size_leaf_vector":"0"}},{"base_weights":[-6.565922E-3,-4.013179E-2,6.771621E-2,7.9590276E-2,-8.452629E-2,-5.9272643E-2,1.905395E-2],"categories":[],"categories_nodes":[],"categories_segments":[],"categories_sizes":[],"default_left":[0,0,0,0,0,0,0],"id":70,"left_children":[1,-1,3,-1,5,-1,-1],"loss_changes":[6.956713E-2,0E0,1.6400656E-1,0E0,6.9730625E-2,0E0,0E0],"parents":[2147483647,0,0,2,2,4,4],"right_children":[2,-1,4,-1,6,-1,-1],"split_conditions":[5.63E2,-4.013179E-2,5.67E2,7.9590276E-2,1.07485E5,-5.9272643E-2,1.905395E-2],"split_indices":[7,0,7,0,8,0,0],"split_type":[0,0,0,0,0,0,0],"sum_hessian":[5.403574E0,1.6968607E0,3.706713E0,1.2899537E0,2.4167595E0,1.1805943E0,1.236165E0],"tree_param":{"num_deleted":"0","num_feature":"13","num_nodes":"7","size_leaf_vector":"0"}},{"base_weights":[-5.179591E-3,-1.1573274E-1,8.009743E-2,3.5348248E-2,-9.0632044E-2,-2.91914E-2,6.908756E-2],"categories":[],"categories_nodes":[],"categories_segments":[],"categories_sizes":[],"default_left":[0,0,0,0,0,0,0],"id":71,"left_children":[1,3,5,-1,-1,-1,-1],"loss_changes":[6.890512E-2,1.7330551E-1,1.3330404E-1,0E0,0E0,0E0,0E0],"parents":[2147483647,0,0,1,1,2,2],"right_children":[2,4,6,-1,-1,-1,-1],"split_conditions":[1.79E2,4.25E3,8.813E3,3.5348248E-2,-9.0632044E-2,-2.91914E-2,6.908756E-2],"split_indices":[9,0,0,0,0,0,0],"split_type":[0,0,0,0,0,0,0],"sum_hessian":[5.325571E0,2.1635742E0,3.1619966E0,1.1234633E0,1.0401111E0,1.6111405E0,1.5508561E0],"tree_param":{"num_deleted":"0","num_feature":"13","num_nodes":"7","size_leaf_vector":"0"}},{"base_weights":[-6.716992E-3,-3.956769E-2,5.2751288E-2,-4.9377866E-2,2.3177162E-1,8.3653465E-2,2.4110032E-2],"categories":[],"categories_nodes":[],"categories_segments":[],"categories_sizes":[],"default_left":[0,0,0,0,0,0,0],"id":72,"left_children":[1,-1,3,-1,5,-1,-1],"loss_changes":[5.399859E-2,0E0,2.3263046E-1,0E0,8.3982944E-5,0E0,0E0],"parents":[2147483647,0,0,2,2,4,4],"right_children":[2,-1,4,-1,6,-1,-1],"split_conditions":[5.2719E4,-3.956769E-2,4.961E3,-4.9377866E-2,1.04118E5,8.3653465E-2,2.4110032E-2],"split_indices":[8,0,0,0,8,0,0],"split_type":[0,0,0,0,0,0,0],"sum_hessian":[5.319365E0,1.3209747E0,3.9983904E0,1.8422958E0,2.1560948E0,1.0026456E0,1.1534492E0],"tree_param":{"num_deleted":"0","num_feature":"13","num_nodes":"7","size_leaf_vector":"0"}},{"base_weights":[-2.28924E-3,9.434722E-2,-1.1167184E-1,8.4030814E-2,-4.8270673E-2,-6.165655E-2,1.0935771E-2],"categories":[],"categories_nodes":[],"categories_segments":[],"categories_sizes":[],"default_left":[0,0,0,0,0,0,0],"id":73,"left_children":[1,3,5,-1,-1,-1,-1],"loss_changes":[7.7117324E-2,2.2933601E-1,5.4931186E-2,0E0,0E0,0E0,0E0],"parents":[2147483647,0,0,1,1,2,2],"right_children":[2,4,6,-1,-1,-1,-1],"split_conditions":[5.67E2,3.0236E3,2.435E4,8.4030814E-2,-4.8270673E-2,-6.165655E-2,1.0935771E-2],"split_indices":[7,0,5,0,0,0,0],"split_type":[0,0,0,0,0,0,0],"sum_hessian":[5.2988834E0,2.8863397E0,2.4125435E0,1.61423E0,1.2721097E0,1.2396319E0,1.1729116E0],"tree_param":{"num_deleted":"0","num_feature":"13","num_nodes":"7","size_leaf_vector":"0"}},{"base_weights":[-4.743477E-3,5.732417E-2,-4.8411734E-2,1.6736741E-1,-3.4751397E-2,1.0725921E-1,-3.4829088E-2],"categories":[],"categories_nodes":[],"categories_segments":[],"categories_sizes":[],"default_left":[0,0,0,0,0,0,0],"id":74,"left_children":[1,3,-1,5,-1,-1,-1],"loss_changes":[7.043923E-2,1.1934553E-1,0E0,2.3644966E-1,0E0,0E0,0E0],"parents":[2147483647,0,0,1,1,3,3],"right_children":[2,4,-1,6,-1,-1,-1],"split_conditions":[2.7233E4,5.67E2,-4.8411734E-2,3.0236E3,-3.4751397E-2,1.0725921E-1,-3.4829088E-2],"split_indices":[5,7,0,0,0,0,0],"split_type":[0,0,0,0,0,0,0],"sum_hessian":[5.294102E0,4.245674E0,1.048428E0,2.616422E0,1.6292521E0,1.4095378E0,1.2068841E0],"tree_param":{"num_deleted":"0","num_feature":"13","num_nodes":"7","size_leaf_vector":"0"}},{"base_weights":[-5.7697343E-3,-4.383707E-2,7.866342E-2,7.807314E-2,-6.89994E-2,-5.3588707E-2,2.0235842E-2],"categories":[],"categories_nodes":[],"categories_segments":[],"categories_sizes":[],"default_left":[0,0,0,0,0,0,0],"id":75,"left_children":[1,-1,3,-1,5,-1,-1],"loss_changes":[8.5790575E-2,0E0,1.4034571E-1,0E0,6.153173E-2,0E0,0E0],"parents":[2147483647,0,0,2,2,4,4],"right_children":[2,-1,4,-1,6,-1,-1],"split_conditions":[5.63E2,-4.383707E-2,5.67E2,7.807314E-2,1.07485E5,-5.3588707E-2,2.0235842E-2],"split_indices":[7,0,7,0,8,0,0],"split_type":[0,0,0,0,0,0,0],"sum_hessian":[5.2694306E0,1.7048329E0,3.5645974E0,1.2567537E0,2.3078437E0,1.1083044E0,1.1995393E0],"tree_param":{"num_deleted":"0","num_feature":"13","num_nodes":"7","size_leaf_vector":"0"}},{"base_weights":[-4.322147E-3,-4.20809E-2,5.9302602E-2,-5.0628964E-2,7.371716E-2],"categories":[],"categories_nodes":[],"categories_segments":[],"categories_sizes":[],"default_left":[0,0,0,0,0],"id":76,"left_children":[1,-1,3,-1,-1],"loss_changes":[6.191233E-2,0E0,2.5080255E-1,0E0,0E0],"parents":[2147483647,0,0,2,2],"right_children":[2,-1,4,-1,-1],"split_conditions":[5.2719E4,-4.20809E-2,4.961E3,-5.0628964E-2,7.371716E-2],"split_indices":[8,0,0,0,0],"split_type":[0,0,0,0,0],"sum_hessian":[5.1961026E0,1.2725006E0,3.9236023E0,1.8072963E0,2.116306E0],"tree_param":{"num_deleted":"0","num_feature":"13","num_nodes":"5","size_leaf_vector":"0"}},{"base_weights":[-6.8081315E-3,4.627921E-2,-4.218841E-2,-2.9157197E-2,1.3855942E-1,6.809411E-2,-2.3783257E-3],"categories":[],"categories_nodes":[],"categories_segments":[],"categories_sizes":[],"default_left":[0,0,0,0,0,0,0],"id":77,"left_children":[1,3,-1,-1,5,-1,-1],"loss_changes":[5.0544824E-2,8.218591E-2,0E0,0E0,4.805334E-2,0E0,0E0],"parents":[2147483647,0,0,1,1,4,4],"right_children":[2,4,-1,-1,6,-1,-1],"split_conditions":[8.15E2,5.63E2,-4.218841E-2,-2.9157197E-2,5.67E2,6.809411E-2,-2.3783257E-3],"split_indices":[7,7,0,0,7,0,0],"split_type":[0,0,0,0,0,0,0],"sum_hessian":[5.198732E0,4.1904984E0,1.0082338E0,1.6194676E0,2.5710306E0,1.2606198E0,1.3104107E0],"tree_param":{"num_deleted":"0","num_feature":"13","num_nodes":"7","size_leaf_vector":"0"}},{"base_weights":[-5.896898E-3,-3.50995E-2,7.8157075E-2,6.4217694E-2,-4.1624334E-2,5.7003833E-2,-7.557911E-2],"categories":[],"categories_nodes":[],"categories_segments":[],"categories_sizes":[],"default_left":[0,0,0,0,0,0,0],"id":78,"left_children":[1,-1,3,-1,5,-1,-1],"loss_changes":[6.647522E-2,0E0,7.55631E-2,0E0,1.9467415E-1,0E0,0E0],"parents":[2147483647,0,0,2,2,4,4],"right_children":[2,-1,4,-1,6,-1,-1],"split_conditions":[1.79E2,-3.50995E-2,1.89E2,6.4217694E-2,3.96E2,5.7003833E-2,-7.557911E-2],"split_indices":[9,0,9,0,7,0,0],"split_type":[0,0,0,0,0,0,0],"sum_hessian":[5.139195E0,2.0446546E0,3.09454E0,1.080989E0,2.0135512E0,1.0041003E0,1.0094509E0],"tree_param":{"num_deleted":"0","num_feature":"13","num_nodes":"7","size_leaf_vector":"0"}},{"base_weights":[-3.0851287E-3,-3.7369385E-2,5.344279E-2,-3.9350934E-2,1.939188E-1,7.279864E-2,1.7818045E-2],"categories":[],"categories_nodes":[],"categories_segments":[],"categories_sizes":[],"default_left":[0,0,0,0,0,0,0],"id":79,"left_children":[1,-1,3,-1,5,-1,-1],"loss_changes":[4.865403E-2,0E0,1.51822E-1,0E0,6.3805804E-3,0E0,0E0],"parents":[2147483647,0,0,2,2,4,4],"right_children":[2,-1,4,-1,6,-1,-1],"split_conditions":[5.2719E4,-3.7369385E-2,4.961E3,-3.9350934E-2,1.03456E5,7.279864E-2,1.7818045E-2],"split_indices":[8,0,0,0,8,0,0],"split_type":[0,0,0,0,0,0,0],"sum_hessian":[5.1157794E0,1.242351E0,3.8734286E0,1.7023975E0,2.171031E0,1.0035639E0,1.1674672E0],"tree_param":{"num_deleted":"0","num_feature":"13","num_nodes":"7","size_leaf_vector":"0"}},{"base_weights":[-2.4480498E-4,3.6683097E-2,-7.772135E-2,-6.606926E-2,2.5812818E-2],"categories":[],"categories_nodes":[],"categories_segments":[],"categories_sizes":[],"default_left":[0,0,0,0,0],"id":80,"left_children":[1,-1,3,-1,-1],"loss_changes":[6.7441165E-2,0E0,1.2048012E-1,0E0,0E0],"parents":[2147483647,0,0,2,2],"right_children":[2,-1,4,-1,-1],"split_conditions":[2.73144E3,3.6683097E-2,7.92E2,-6.606926E-2,2.5812818E-2],"split_indices":[0,0,7,0,0],"split_type":[0,0,0,0,0],"sum_hessian":[5.1034746E0,1.7530102E0,3.3504643E0,1.6071217E0,1.7433428E0],"tree_param":{"num_deleted":"0","num_feature":"13","num_nodes":"5","size_leaf_vector":"0"}},{"base_weights":[-1.1009237E-3,8.878035E-2,-1.04999565E-1,7.124865E-2,-3.2431427E-2,-5.6478273E-2,8.256589E-3],"categories":[],"categories_nodes":[],"categories_segments":[],"categories_sizes":[],"default_left":[0,0,0,0,0,0,0],"id":81,"left_children":[1,3,5,-1,-1,-1,-1],"loss_changes":[6.6486716E-2,1.3763866E-1,4.156503E-2,0E0,0E0,0E0,0E0],"parents":[2147483647,0,0,1,1,2,2],"right_children":[2,4,6,-1,-1,-1,-1],"split_conditions":[5.67E2,1.4662E4,2.435E4,7.124865E-2,-3.2431427E-2,-5.6478273E-2,8.256589E-3],"split_indices":[7,5,5,0,0,0,0],"split_type":[0,0,0,0,0,0,0],"sum_hessian":[5.121386E0,2.8239427E0,2.2974434E0,1.4912657E0,1.3326769E0,1.1526464E0,1.144797E0],"tree_param":{"num_deleted":"0","num_feature":"13","num_nodes":"7","size_leaf_vector":"0"}},{"base_weights":[-2.8113006E-3,3.8163163E-2,-7.264711E-2,-5.804961E-2,2.9232247E-2],"categories":[],"categories_nodes":[],"categories_segments":[],"categories_sizes":[],"default_left":[0,0,0,0,0],"id":82,"left_children":[1,-1,3,-1,-1],"loss_changes":[6.473535E-2,0E0,1.1366651E-1,0E0,0E0],"parents":[2147483647,0,0,2,2],"right_children":[2,-1,4,-1,-1],"split_conditions":[5.3408E4,3.8163163E-2,3.56E2,-5.804961E-2,2.9232247E-2],"split_indices":[8,0,9,0,0],"split_type":[0,0,0,0,0],"sum_hessian":[5.1115384E0,1.4990355E0,3.612503E0,2.0314612E0,1.5810417E0],"tree_param":{"num_deleted":"0","num_feature":"13","num_nodes":"5","size_leaf_vector":"0"}},{"base_weights":[-8.8287744E-4,-3.2819543E-2,6.17355E-2,6.612961E-2,-6.924129E-2,-5.001407E-2,1.6160367E-2],"categories":[],"categories_nodes":[],"categories_segments":[],"categories_sizes":[],"default_left":[0,0,0,0,0,0,0],"id":83,"left_children":[1,-1,3,-1,5,-1,-1],"loss_changes":[4.796733E-2,0E0,1.0849024E-1,0E0,4.7597617E-2,0E0,0E0],"parents":[2147483647,0,0,2,2,4,4],"right_children":[2,-1,4,-1,6,-1,-1],"split_conditions":[5.63E2,-3.2819543E-2,5.67E2,6.612961E-2,1.07485E5,-5.001407E-2,1.6160367E-2],"split_indices":[7,0,7,0,8,0,0],"split_type":[0,0,0,0,0,0,0],"sum_hessian":[5.065214E0,1.5800217E0,3.4851923E0,1.2670275E0,2.218165E0,1.0403054E0,1.1778594E0],"tree_param":{"num_deleted":"0","num_feature":"13","num_nodes":"7","size_leaf_vector":"0"}},{"base_weights":[-9.454703E-4,-3.7653208E-2,5.7710797E-2,-3.6798242E-2,5.7412576E-2],"categories":[],"categories_nodes":[],"categories_segments":[],"categories_sizes":[],"default_left":[0,0,0,0,0],"id":84,"left_children":[1,-1,3,-1,-1],"loss_changes":[5.1144786E-2,0E0,1.384751E-1,0E0,0E0],"parents":[2147483647,0,0,2,2],"right_children":[2,-1,4,-1,-1],"split_conditions":[5.2719E4,-3.7653208E-2,4.961E3,-3.6798242E-2,5.7412576E-2],"split_indices":[8,0,0,0,0],"split_type":[0,0,0,0,0],"sum_hessian":[5.0085235E0,1.2385384E0,3.769985E0,1.6396736E0,2.1303115E0],"tree_param":{"num_deleted":"0","num_feature":"13","num_nodes":"5","size_leaf_vector":"0"}},{"base_weights":[-3.8854056E-3,1.0004434E-1,-9.5433615E-2,4.7196057E-3,4.412644E-2,-9.540174E-2,3.4165103E-2],"categories":[],"categories_nodes":[],"categories_segments":[],"categories_sizes":[],"default_left":[0,0,0,0,0,0,0],"id":85,"left_children":[1,3,5,-1,-1,-1,-1],"loss_changes":[6.678305E-2,1.0796726E-2,2.0906168E-1,0E0,0E0,0E0,0E0],"parents":[2147483647,0,0,1,1,2,2],"right_children":[2,4,6,-1,-1,-1,-1],"split_conditions":[4.25E3,2.1332E4,5E0,4.7196057E-3,4.412644E-2,-9.540174E-2,3.4165103E-2],"split_indices":[0,5,2,0,0,0,0],"split_type":[0,0,0,0,0,0,0],"sum_hessian":[5.015551E0,2.3054702E0,2.710081E0,1.303585E0,1.0018852E0,1.0617954E0,1.6482856E0],"tree_param":{"num_deleted":"0","num_feature":"13","num_nodes":"7","size_leaf_vector":"0"}},{"base_weights":[-5.2400194E-3,3.1622957E-2,-7.464055E-2,-6.004589E-2,2.1156773E-2],"categories":[],"categories_nodes":[],"categories_segments":[],"categories_sizes":[],"default_left":[0,0,0,0,0],"id":86,"left_children":[1,-1,3,-1,-1],"loss_changes":[5.4038502E-2,0E0,9.210326E-2,0E0,0E0],"parents":[2147483647,0,0,2,2],"right_children":[2,-1,4,-1,-1],"split_conditions":[2.73144E3,3.1622957E-2,7.92E2,-6.004589E-2,2.1156773E-2],"split_indices":[0,0,7,0,0],"split_type":[0,0,0,0,0],"sum_hessian":[5.0124617E0,1.7320604E0,3.2804015E0,1.5561194E0,1.7242819E0],"tree_param":{"num_deleted":"0","num_feature":"13","num_nodes":"5","size_leaf_vector":"0"}},{"base_weights":[-5.1260544E-3,3.7232816E-2,-7.426923E-2,6.1845005E-2,-7.1048714E-2,4.96259E-2,-1.7431498E-2],"categories":[],"categories_nodes":[],"categories_segments":[],"categories_sizes":[],"default_left":[0,0,0,0,0,0,0],"id":87,"left_children":[1,-1,3,5,-1,-1,-1],"loss_changes":[6.305854E-2,0E0,1.15342796E-1,5.023564E-2,0E0,0E0,0E0],"parents":[2147483647,0,0,2,2,3,3],"right_children":[2,-1,4,6,-1,-1,-1],"split_conditions":[5.3408E4,3.7232816E-2,4E0,2.73144E3,-7.1048714E-2,4.96259E-2,-1.7431498E-2],"split_indices":[8,0,10,0,0,0,0],"split_type":[0,0,0,0,0,0,0],"sum_hessian":[5.0253525E0,1.4744666E0,3.550886E0,2.2698529E0,1.281033E0,1.0146495E0,1.2552034E0],"tree_param":{"num_deleted":"0","num_feature":"13","num_nodes":"7","size_leaf_vector":"0"}},{"base_weights":[-4.4100275E-3,3.045359E-2,-6.1865665E-2,5.2697826E-2,-6.111982E-2,-1.6235884E-2,4.4500038E-2],"categories":[],"categories_nodes":[],"categories_segments":[],"categories_sizes":[],"default_left":[0,0,0,0,0,0,0],"id":88,"left_children":[1,-1,3,5,-1,-1,-1],"loss_changes":[4.2695142E-2,0E0,8.388442E-2,4.157997E-2,0E0,0E0,0E0],"parents":[2147483647,0,0,2,2,3,3],"right_children":[2,-1,4,6,-1,-1,-1],"split_conditions":[5.3408E4,3.045359E-2,4E0,1.53501E5,-6.111982E-2,-1.6235884E-2,4.4500038E-2],"split_indices":[8,0,10,8,0,0,0],"split_type":[0,0,0,0,0,0,0],"sum_hessian":[4.9835916E0,1.4829394E0,3.5006523E0,2.2844255E0,1.2162267E0,1.2841915E0,1.000234E0],"tree_param":{"num_deleted":"0","num_feature":"13","num_nodes":"7","size_leaf_vector":"0"}},{"base_weights":[-3.8868738E-3,-3.6789387E-2,5.3353865E-2,-4.007425E-2,1.9439776E-1,7.202783E-2,1.6462483E-2],"categories":[],"categories_nodes":[],"categories_segments":[],"categories_sizes":[],"default_left":[0,0,0,0,0,0,0],"id":89,"left_children":[1,-1,3,-1,5,-1,-1],"loss_changes":[4.695315E-2,0E0,1.5010855E-1,0E0,6.530702E-3,0E0,0E0],"parents":[2147483647,0,0,2,2,4,4],"right_children":[2,-1,4,-1,6,-1,-1],"split_conditions":[5.2719E4,-3.6789387E-2,4.961E3,-4.007425E-2,1.9071E4,7.202783E-2,1.6462483E-2],"split_indices":[8,0,0,0,5,0,0],"split_type":[0,0,0,0,0,0,0],"sum_hessian":[4.945298E0,1.2369337E0,3.7083645E0,1.6174997E0,2.0908647E0,1.0320467E0,1.058818E0],"tree_param":{"num_deleted":"0","num_feature":"13","num_nodes":"7","size_leaf_vector":"0"}},{"base_weights":[-1.1441042E-3,7.965391E-2,-7.378514E-2,4.168412E-2,-2.3490656E-3,3.6831576E-2,-8.5674115E-2],"categories":[],"categories_nodes":[],"categories_segments":[],"categories_sizes":[],"default_left":[0,0,0,0,0,0,0],"id":90,"left_children":[1,3,5,-1,-1,-1,-1],"loss_changes":[4.0728122E-2,1.816417E-2,1.8683907E-1,0E0,0E0,0E0,0E0],"parents":[2147483647,0,0,1,1,2,2],"right_children":[2,4,6,-1,-1,-1,-1],"split_conditions":[4.25E3,2E0,2.4714E4,4.168412E-2,-2.3490656E-3,3.6831576E-2,-8.5674115E-2],"split_indices":[0,10,5,0,0,0,0],"split_type":[0,0,0,0,0,0,0],"sum_hessian":[4.937868E0,2.2919784E0,2.6458898E0,1.0154759E0,1.2765026E0,1.5903183E0,1.0555714E0],"tree_param":{"num_deleted":"0","num_feature":"13","num_nodes":"7","size_leaf_vector":"0"}},{"base_weights":[-2.8088428E-3,5.6907613E-2,-3.1929497E-2,-2.048866E-2,5.412822E-2],"categories":[],"categories_nodes":[],"categories_segments":[],"categories_sizes":[],"default_left":[0,0,0,0,0],"id":91,"left_children":[1,3,-1,-1,-1],"loss_changes":[4.2813174E-2,8.067678E-2,0E0,0E0,0E0],"parents":[2147483647,0,0,1,1],"right_children":[2,4,-1,-1,-1],"split_conditions":[1.35904E5,8.813E3,-3.1929497E-2,-2.048866E-2,5.412822E-2],"split_indices":[8,0,0,0,0],"split_type":[0,0,0,0,0],"sum_hessian":[4.9399605E0,3.4199238E0,1.520037E0,1.9204199E0,1.4995037E0],"tree_param":{"num_deleted":"0","num_feature":"13","num_nodes":"5","size_leaf_vector":"0"}},{"base_weights":[-1.9151329E-3,7.632871E-2,-9.354967E-2,6.278239E-2,-3.3979412E-2,-5.2601527E-2,1.0298719E-2],"categories":[],"categories_nodes":[],"categories_segments":[],"categories_sizes":[],"default_left":[0,0,0,0,0,0,0],"id":92,"left_children":[1,3,5,-1,-1,-1,-1],"loss_changes":[4.9645875E-2,1.1818729E-1,3.9277278E-2,0E0,0E0,0E0,0E0],"parents":[2147483647,0,0,1,1,2,2],"right_children":[2,4,6,-1,-1,-1,-1],"split_conditions":[5.67E2,3.0236E3,2.435E4,6.278239E-2,-3.3979412E-2,-5.2601527E-2,1.0298719E-2],"split_indices":[7,0,5,0,0,0,0],"split_type":[0,0,0,0,0,0,0],"sum_hessian":[4.9283557E0,2.7485158E0,2.1798398E0,1.5545989E0,1.193917E0,1.1031537E0,1.0766861E0],"tree_param":{"num_deleted":"0","num_feature":"13","num_nodes":"7","size_leaf_vector":"0"}},{"base_weights":[-4.0281117E-3,-6.929012E-2,3.464542E-2,-5.7908293E-2,2.5814667E-2],"categories":[],"categories_nodes":[],"categories_segments":[],"categories_sizes":[],"default_left":[0,0,0,0,0],"id":93,"left_children":[1,3,-1,-1,-1],"loss_changes":[5.418674E-2,1.0224007E-1,0E0,0E0,0E0],"parents":[2147483647,0,0,1,1],"right_children":[2,4,-1,-1,-1],"split_conditions":[6E0,7.92E2,3.464542E-2,-5.7908293E-2,2.5814667E-2],"split_indices":[10,7,0,0,0],"split_type":[0,0,0,0,0],"sum_hessian":[4.9213953E0,3.4549758E0,1.4664193E0,1.7880539E0,1.666922E0],"tree_param":{"num_deleted":"0","num_feature":"13","num_nodes":"5","size_leaf_vector":"0"}},{"base_weights":[-2.7950052E-3,7.2165206E-2,-9.050291E-2,-2.5038676E-2,6.420415E-2,-4.847633E-2,5.4116696E-3],"categories":[],"categories_nodes":[],"categories_segments":[],"categories_sizes":[],"default_left":[0,0,0,0,0,0,0],"id":94,"left_children":[1,3,5,-1,-1,-1,-1],"loss_changes":[4.5191586E-2,1.00135565E-1,2.7245192E-2,0E0,0E0,0E0,0E0],"parents":[2147483647,0,0,1,1,2,2],"right_children":[2,4,6,-1,-1,-1,-1],"split_conditions":[5.67E2,5.63E2,1.07485E5,-2.5038676E-2,6.420415E-2,-4.847633E-2,5.4116696E-3],"split_indices":[7,7,8,0,0,0,0],"split_type":[0,0,0,0,0,0,0],"sum_hessian":[4.8802676E0,2.7269065E0,2.1533613E0,1.4965718E0,1.2303348E0,1.005885E0,1.1474762E0],"tree_param":{"num_deleted":"0","num_feature":"13","num_nodes":"7","size_leaf_vector":"0"}},{"base_weights":[-2.80494E-3,-3.7023064E-2,5.5397056E-2,6.268747E-2,-8.338542E-2,6.8062325E-3,-4.526881E-2],"categories":[],"categories_nodes":[],"categories_segments":[],"categories_sizes":[],"default_left":[0,0,0,0,0,0,0],"id":95,"left_children":[1,-1,3,-1,5,-1,-1],"loss_changes":[4.7751855E-2,0E0,1.1592043E-1,0E0,2.5926676E-2,0E0,0E0],"parents":[2147483647,0,0,2,2,4,4],"right_children":[2,-1,4,-1,6,-1,-1],"split_conditions":[5.2719E4,-3.7023064E-2,1.4662E4,6.268747E-2,1.08184E5,6.8062325E-3,-4.526881E-2],"split_indices":[8,0,5,0,8,0,0],"split_type":[0,0,0,0,0,0,0],"sum_hessian":[4.8288317E0,1.2071066E0,3.6217248E0,1.4792734E0,2.1424515E0,1.0914711E0,1.0509804E0],"tree_param":{"num_deleted":"0","num_feature":"13","num_nodes":"7","size_leaf_vector":"0"}},{"base_weights":[-4.517046E-3,7.523157E-2,-7.5231366E-2,3.747697E-2,-1.084945E-3,2.913092E-2,-7.7189684E-2],"categories":[],"categories_nodes":[],"categories_segments":[],"categories_sizes":[],"default_left":[0,0,0,0,0,0,0],"id":96,"left_children":[1,3,5,-1,-1,-1,-1],"loss_changes":[3.8547188E-2,1.314952E-2,1.3765621E-1,0E0,0E0,0E0,0E0],"parents":[2147483647,0,0,1,1,2,2],"right_children":[2,4,6,-1,-1,-1,-1],"split_conditions":[4.25E3,2E0,2.4714E4,3.747697E-2,-1.084945E-3,2.913092E-2,-7.7189684E-2],"split_indices":[0,10,5,0,0,0,0],"split_type":[0,0,0,0,0,0,0],"sum_hessian":[4.831754E0,2.2407975E0,2.5909564E0,1.0160855E0,1.224712E0,1.5707971E0,1.0201594E0],"tree_param":{"num_deleted":"0","num_feature":"13","num_nodes":"7","size_leaf_vector":"0"}},{"base_weights":[-5.476305E-3,-3.10877E-2,5.2526493E-2,5.7172757E-2,-6.361038E-2,-4.6983708E-2,1.8819558E-2],"categories":[],"categories_nodes":[],"categories_segments":[],"categories_sizes":[],"default_left":[0,0,0,0,0,0,0],"id":97,"left_children":[1,-1,3,-1,5,-1,-1],"loss_changes":[3.8639795E-2,0E0,8.152496E-2,0E0,4.625859E-2,0E0,0E0],"parents":[2147483647,0,0,2,2,4,4],"right_children":[2,-1,4,-1,6,-1,-1],"split_conditions":[5.63E2,-3.10877E-2,5.67E2,5.7172757E-2,2.435E4,-4.6983708E-2,1.8819558E-2],"split_indices":[7,0,7,0,5,0,0],"split_type":[0,0,0,0,0,0,0],"sum_hessian":[4.8312078E0,1.5023854E0,3.3288224E0,1.2280762E0,2.1007462E0,1.0720268E0,1.0287194E0],"tree_param":{"num_deleted":"0","num_feature":"13","num_nodes":"7","size_leaf_vector":"0"}},{"base_weights":[-4.4434206E-3,-3.5567656E-2,5.10225E-2,-3.327962E-2,5.089119E-2],"categories":[],"categories_nodes":[],"categories_segments":[],"categories_sizes":[],"default_left":[0,0,0,0,0],"id":98,"left_children":[1,-1,3,-1,-1],"loss_changes":[4.260147E-2,0E0,1.0690075E-1,0E0,0E0],"parents":[2147483647,0,0,2,2],"right_children":[2,-1,4,-1,-1],"split_conditions":[5.2719E4,-3.5567656E-2,4.961E3,-3.327962E-2,5.089119E-2],"split_indices":[8,0,0,0,0],"split_type":[0,0,0,0,0],"sum_hessian":[4.7748957E0,1.1897008E0,3.5851948E0,1.5430762E0,2.0421185E0],"tree_param":{"num_deleted":"0","num_feature":"13","num_nodes":"5","size_leaf_vector":"0"}},{"base_weights":[-6.5069757E-3,9.406618E-2,-9.394129E-2,4.161101E-2,2.9656205E-3,1.8487336E-2,-7.402727E-2],"categories":[],"categories_nodes":[],"categories_segments":[],"categories_sizes":[],"default_left":[0,0,0,0,0,0,0],"id":99,"left_children":[1,3,5,-1,-1,-1,-1],"loss_changes":[5.9647013E-2,1.0603687E-2,1.00582264E-1,0E0,0E0,0E0,0E0],"parents":[2147483647,0,0,1,1,2,2],"right_children":[2,4,6,-1,-1,-1,-1],"split_conditions":[4.25E3,2E0,2.4714E4,4.161101E-2,2.9656205E-3,1.8487336E-2,-7.402727E-2],"split_indices":[0,10,5,0,0,0,0],"split_type":[0,0,0,0,0,0,0],"sum_hessian":[4.7781377E0,2.1868353E0,2.5913026E0,1.005814E0,1.1810212E0,1.57981E0,1.0114925E0],"tree_param":{"num_deleted":"0","num_feature":"13","num_nodes":"7","size_leaf_vector":"0"}}]},"name":"gbtree"},"learner_model_param":{"base_score":"5E-1","boost_from_average":"1","num_class":"0","num_feature":"13","num_target":"1"},"objective":{"name":"binary:logistic","reg_loss_param":{"scale_pos_weight":"1"}}},"version":[1,7,4]}